{
	"Type":	"MultilayerPerceptron",
	"Layers":	[{
			"Inputs":	173,
			"Outputs":	200,
			"Function":	"RectifiedLinear",
			"Biases":	[0.439719, 0.488464, 0.461766, 0.531537, 0.396872, 0.480952, 0.526729, 1.268373, 0.466666, 0.425489, 0.456359, 0.437788, 0.458986, 0.306514, 0.417675, 0.643970, 0.590256, 0.609724, 0.356857, 0.610816, 0.634419, 0.318453, 0.395896, 0.264074, 0.738111, 0.608371, 0.452021, 0.346822, 0.670355, 0.829880, 0.768071, 0.587129, 0.597660, 0.344382, 0.474021, 0.924614, 0.287985, 0.582206, 0.966293, 0.507793, 0.984635, 1.008601, 0.579475, 0.479767, 0.691240, 0.524382, 0.371244, 0.780826, 0.585637, 0.494755, 0.512613, 0.366106, 0.435898, 0.523728, 0.637478, 0.539080, 0.394382, 0.540941, 0.550514, 0.347443, 0.312177, 0.413888, 0.632181, 0.591775, 0.791126, 0.582287, 0.569564, 0.408911, 0.543922, 0.478835, 0.790484, 0.837304, 0.639309, 0.696001, 0.532033, 0.372275, 0.486081, 0.533532, 0.425735, 0.578242, 0.520236, 0.402558, 0.576987, 0.689730, 0.363288, 0.429289, 0.506498, 0.338627, 0.760185, 0.592432, 0.390717, 0.412957, 0.370699, 0.546540, 0.559567, 0.385164, 0.399400, 0.676995, 0.415426, 0.704435, 0.456614, 0.702112, 0.345426, 0.500670, 0.867143, 0.637363, 0.571575, 0.640037, 0.616548, 0.550931, 0.465582, 0.440280, 0.562181, 0.522441, 0.369915, 0.408454, 0.605174, 0.394305, 0.469584, 0.481300, 0.679520, 0.993402, 0.637046, 0.540529, 0.559062, 0.758097, 0.584565, 0.512477, 0.432073, 0.566346, 0.513686, 0.418731, 0.335514, 0.565827, 0.341132, 0.417533, 0.375764, 0.584693, 0.395525, 0.538623, 0.340392, 0.563483, 0.830198, 0.427878, 0.523449, 0.445884, 0.388836, 0.745997, 0.513188, 0.590229, 0.493147, 0.438065, 0.404144, 0.321573, 0.419669, 0.473365, 0.416172, 0.697605, 0.512714, 0.629047, 0.470483, 0.402206, 0.679940, 0.545718, 0.530654, 0.681575, 0.434014, 0.568151, 0.589926, 0.500129, 0.621484, 0.597035, 0.571570, 2.032037, 2.072773, 2.025723, 2.048880, 2.070038, 1.310981, 1.813307, 2.091711, 2.069634, 2.057906, 2.212770, 2.087388, 1.433368, 2.104454, 2.165521, 2.059063, 1.383925, 1.958529, 2.033246, 2.107428, 1.933170, 2.062613, 2.060849, 2.005819, 2.045223, 1.995792, 2.087416],
			"Weights":	[[0.251472, -0.140254, -0.860717, -0.609994, 0.073514, 0.683471, 0.547701, -0.524653, -7.407897, -0.433527, 0.379256, 0.711725, -0.342325, -7.973133, -0.551182, 0.377551, 0.566595, 0.105798, -0.335935, -0.646396, -0.455725, 0.191212, 0.205709, 0.463780, -0.139429, -0.338933, -0.530568, -0.192865, 0.239388, 0.282299, -0.244566, -0.615084, -0.608805, 0.083094, 0.514002, 0.413246, -0.306811, -7.204581, -0.380692, 0.236616, 0.353154, -0.026247, -0.388392, -0.232233, 0.108175, 0.170333, -0.068771, -0.254834, -0.163882, -0.240487, -0.000198, -0.031668, 0.132460, -0.018635, 0.285013, 0.070928, -0.281759, -0.224595, 0.106843, -0.060710, -0.191320, -0.192336, -0.106041, 0.291515, 0.343257, 0.004184, -0.176842, 0.011884, -0.015494, -0.016393, -0.331694, 0.031434, 0.289572, 0.216272, -0.033775, -0.145142, -0.138171, -0.115272, 0.145532, -0.039319, -0.421208, -0.326299, -0.000388, 0.097332, -0.004010, -0.211923, -0.005937, -0.038053, -0.048653, -0.102186, 0.002092, -0.034972, 0.225464, 0.194822, -0.271904, -0.220990, 0.222189, 0.164317, -0.130853, -0.673444, 0.027824, 0.383688, 0.405939, -0.189520, -0.556991, -0.398234, 0.071758, 0.269300, 0.037372, -0.273236, -0.275469, -0.028501, 0.233728, 0.244995, 0.130395, -0.003393, -0.348533, -0.427933, 0.106385, 0.375999, 0.229040, -0.076212, -0.347412, -0.521777, -0.038775, 0.329737, 0.316030, -0.248307, -7.672300, -0.566694, 0.524765, 0.665740, 0.121086, -0.969821, -0.573744, 0.085495, 0.455282, 0.164451, -0.095738, -0.446077, -0.416318, 0.061155, 0.504604, 0.505019, 0.142136, -7.292200, -0.654473, -0.133547, 0.363228, 0.331814, 0.035639, -0.437133, -0.552485, -0.135764, 0.440420, 0.041872, -0.354161, -0.623002, -0.084136, 0.298150, 0.414987, 0.132020, -0.416412, -0.408373, -0.113430, 0.070234, -0.006270, -0.219655, -0.274481, 0.047874, 0.178717, -0.082078, -5.923512], 
				[-0.001578, -0.000039, 0.105221, -0.131233, -0.307722, 0.115084, 0.323771, -0.181069, -0.568514, 0.002552, 0.421004, -0.115475, -0.849425, -0.121124, 0.424521, -0.121181, -0.871448, 0.257160, 0.444468, -0.384800, -0.752766, 0.193479, 0.457168, -0.381372, -7.882384, 0.064245, 0.741572, -0.129865, -0.700807, -0.274331, 0.254421, 0.133519, -0.619110, -0.239280, 0.187637, 0.248839, -0.110285, -0.114990, -0.003984, -0.156995, -0.106397, 0.153566, -0.070691, -0.103456, 0.009518, 0.172028, 0.026964, -0.251205, -0.010787, 0.133476, 0.069560, -0.303261, 0.047829, 0.076946, -0.115353, -0.178804, -0.003219, 0.277453, -0.064713, -0.429807, -0.033725, 0.219183, 0.278697, -0.335721, -0.517999, 0.247608, 0.268741, -0.293857, -0.539300, 0.204168, 0.436405, -0.465480, -7.372939, 0.067013, 0.645248, -0.316211, -0.689874, 0.039705, 0.532722, -0.146075, -0.393203, 0.094062, 0.466614, -0.270406, -0.558519, 0.255542, 0.492905, -0.424447, -0.595214, 0.166253, 0.294701, -0.333936, -0.393763, 0.136538, 0.189961, -0.061079, -0.215194, 0.137726, 0.003142, -0.452921, 0.180996, 0.333186, -0.362028, -0.540524, 0.049297, 0.560663, 0.040227, -0.642010, 0.075625, 0.457324, -0.068429, -7.466795, 0.095587, 0.234621, -0.111330, -0.475465, 0.158216, 0.497827, -0.032906, -0.683330, -0.045649, 0.421080, -0.113700, -0.490407, -0.189605, 0.363904, 0.139137, -0.216582, -0.193254, 0.062741, 0.123538, -0.487168, -0.432977, 0.165005, 0.331123, -0.066488, -0.326652, 0.038400, 0.258154, 0.053486, -0.066861, -0.171938, -0.028816, -0.037965, -0.045905, 0.082978, 0.031391, -0.169089, 0.221226, 0.276582, -0.198931, -0.456469, 0.024115, 0.282492, -0.233832, -0.192825, 0.196579, 0.276642, -0.314849, -0.442390, 0.629108, 0.342134, -0.626398, -0.829493, 0.435442, 0.683767, -0.576625, -8.837745, 0.258332, 0.748956, -0.197260, -8.602794, -0.408168], 
				[-0.660673, 0.489767, 0.583034, -0.309455, -0.505260, -0.187778, 0.210986, -0.252562, -0.517144, -0.024832, 0.038581, -0.459651, 0.204796, 0.705789, 0.270895, -6.591019, -1.078924, 0.178652, 0.497655, -0.081356, -0.337168, -0.213280, -0.097805, -0.099026, 0.049483, 0.222188, -0.025304, -0.336581, -0.137436, 0.100110, 0.004745, -0.213836, -0.153377, 0.015568, 0.268626, 0.391435, -0.028281, -6.459029, -0.041970, 0.147186, 0.008045, -0.159695, 0.083891, 0.205520, -0.165227, -0.386445, -0.171363, -0.261712, -0.404358, -0.008358, 0.396624, 0.274484, -0.417975, -5.883892, 0.135836, 0.386001, -0.020557, -0.118641, -0.055924, 0.094938, -0.107779, -0.378433, 0.043763, -0.056941, -0.293085, 0.067563, 0.280142, 0.104491, -0.311388, -0.509600, 0.017523, 0.280939, 0.073195, -0.242444, -0.211569, -0.115167, 0.125072, 0.171519, -0.075576, -0.163784, 0.046835, 0.315274, -0.063230, 0.010321, 0.136940, -0.076870, -0.285312, 0.011417, 0.293248, -0.204691, -0.710006, 0.018185, 0.437957, -0.075486, -7.501759, -0.380022, 0.372085, 0.215152, -0.032650, -0.100777, -0.076427, -0.004507, 0.064646, 0.010765, 0.125067, -0.187106, -6.336526, 0.057650, 0.179117, 0.183584, -0.102085, -0.177072, 0.073561, 0.027895, -0.014547, -0.088348, -0.127863, 0.070805, 0.452342, 0.043749, 0.107545, 0.049329, -0.062980, -0.100136, -0.135921, 0.351659, 0.129444, -0.358223, -0.337290, 0.152518, 0.234673, -0.195146, -0.068789, 0.315318, 0.123383, -5.567052, -0.582206, 0.046452, 0.153455, 0.003458, 0.462826, 0.394630, -0.208195, -6.471703, -0.198257, 0.291512, 0.277077, 0.164519, -0.073918, 0.031924, 0.039261, -0.230146, -0.372249, -7.563417, 0.095435, 0.244323, 0.003242, 0.070011, -0.018512, -0.270076, -0.128942, -0.044677, 0.508502, 0.396251, -0.388537, -0.302491, -0.037161, 0.231572, -0.096000, -0.163230, 0.271487, 0.448105, 0.092396], 
				[-0.073320, 0.133421, 0.171674, 0.215968, -0.095337, -0.247519, -0.407401, -0.650380, -0.343999, 0.170586, 0.523793, 0.512269, -0.465393, -7.932130, -0.773430, 0.268549, 0.565784, 0.564533, 0.008737, -0.537670, -0.543851, -0.262955, 0.082635, -0.001567, 0.062258, -0.029484, -0.017300, -0.001352, -0.048199, -0.086705, -0.165689, -0.132306, 0.114166, 0.354477, 0.103681, -0.612907, -0.827600, -0.429122, 0.200422, 0.573116, 0.385086, -0.125321, -0.366065, -0.689067, -0.326945, 0.079734, 0.254505, 0.284549, 0.090066, -0.318425, -0.113104, 0.020507, 0.038380, -0.372929, -0.324713, 0.140659, 0.279988, 0.146365, -0.295974, -0.768655, -0.297074, -0.073770, -0.005205, 0.354082, 0.273917, -0.023347, -0.544849, -1.052266, -0.313579, 0.358587, 0.431579, 0.102262, -0.172515, -0.598564, -0.133262, 0.018851, 0.080590, 0.174199, 0.289053, 0.229835, -0.198161, -0.509875, -0.577926, -0.088915, 0.310172, 0.154106, 0.168210, 0.043461, -0.246899, -0.386903, -0.432874, -0.057126, 0.237995, 0.476469, 0.137171, -0.173469, -0.516701, -0.518128, -0.353981, 0.374350, 0.566562, 0.315293, -0.378907, -8.022772, -0.509356, 0.158486, 0.212478, -0.046876, -0.037098, -0.054556, 0.194845, 0.076240, -0.310600, -8.024018, -0.011518, 0.180113, 0.191997, 0.117843, -0.190212, -0.541366, -0.554274, -0.345817, 0.085331, 0.370142, 0.570380, -0.032139, -0.631848, -6.363783, -0.307543, 0.222541, 0.222118, 0.283926, 0.160473, -0.266610, -0.322863, -0.069308, -0.134970, -0.230913, 0.083480, 0.096740, 0.360890, 0.279784, -0.210563, -7.075184, -0.453011, 0.312188, 0.562918, 0.399307, -0.386881, -7.584014, -0.292197, 0.468203, 0.357881, 0.217974, -0.113486, 0.029079, -0.046617, -0.535740, -0.321439, -0.067427, 0.287999, 0.148071, 0.176848, -0.148987, -0.171609, -0.018978, -0.155077, -0.111620, 0.245238, 0.313746, 0.273646, 0.023305, -0.039421], 
				[0.624604, -0.387942, -7.858393, -0.324730, 0.663112, 0.532103, -0.596202, -9.443576, -0.270945, 0.308614, 0.312570, -0.436902, -0.454517, 0.084359, 0.094049, -0.147939, -0.220801, -0.054380, 0.193491, -0.176410, -0.183694, -0.082521, -0.000746, 0.011924, -0.078930, -0.063998, 0.509403, -0.113387, -8.056911, -0.418253, 0.595789, 0.593005, -0.380553, -1.201864, -0.612528, 0.544624, 0.641664, -0.362007, -6.939799, -0.100807, 0.245866, 0.090425, -0.363971, -0.176162, 0.272000, 0.071782, -0.250095, -0.328948, -0.263000, 0.250474, 0.282368, -0.134782, -0.161743, -0.055631, -0.011794, -0.255698, 0.008310, 0.212231, 0.104648, -0.415518, -0.455424, 0.073439, 0.425610, -0.004843, -0.555444, -0.156773, 0.167781, 0.193223, 0.001593, -0.191336, -0.222081, 0.072566, 0.171667, -0.060010, -0.221350, -0.065809, 0.107305, 0.132017, 0.094858, -0.354137, -0.356930, 0.085245, 0.212829, 0.032764, -0.184495, -0.024966, 0.149537, -0.015952, -0.019813, -0.322270, -0.128529, -0.048523, 0.062892, -0.184359, 0.016440, 0.110226, 0.040711, -0.050113, 0.020048, -0.013266, -0.092371, -0.101006, -0.034510, 0.139966, 0.096203, -0.202355, -0.601779, 0.062707, 0.377118, 0.322734, -0.438353, -0.911132, 0.009493, 0.351663, 0.172714, -0.556247, -0.607508, 0.100706, 0.319488, 0.398756, -0.504003, -0.212004, 0.294561, 0.370152, -0.347982, -0.599100, -0.106187, 0.359296, 0.609223, 0.004356, -0.369998, -0.119152, -0.111853, 0.104476, 0.162112, 0.071632, -0.236143, -0.713898, -0.157985, 0.570706, 0.487937, -0.389254, -7.729815, -0.107828, 0.457139, 0.136159, -0.374402, -0.510617, 0.275971, 0.574560, -0.074449, -0.788072, -0.528612, 0.284823, 0.397718, -0.297390, -7.572391, -0.333531, 0.422082, 0.452212, 0.089872, -0.583719, -0.243578, -0.265091, -0.026658, 0.026253, 0.190550, 0.145966, -0.343826, -0.144590, 0.218699, 0.266833, 0.082966], 
				[0.637506, 0.741246, -0.435574, -6.610105, -0.440554, 0.025342, 0.162063, 0.196405, -0.067461, -0.172003, -0.302295, -0.432823, -0.008743, 0.465643, 0.121010, -0.631710, -0.654358, 0.009557, 0.498081, 0.122078, -0.770583, -0.552086, 0.062005, 0.222563, 0.128833, 0.089440, 0.034468, -0.331157, -0.791481, -0.283598, 0.422335, 0.333015, -0.443165, -0.676366, 0.205446, 0.278766, 0.228500, -0.470145, -0.354148, 0.006310, 0.161548, 0.066221, -0.067860, 0.018439, 0.004471, -0.340910, 0.030701, 0.274633, 0.242423, -0.521965, -9.841361, -0.078835, 0.470014, 0.184755, -0.428540, -0.254951, 0.116240, -0.051122, -0.155017, 0.077662, 0.323359, 0.073046, -8.601398, -0.611421, 0.221975, 0.425876, -0.055089, -0.404207, 0.054349, 0.060101, -0.059741, -0.249277, -0.314914, 0.047181, 0.039697, -0.234394, 0.043491, 0.245555, -0.002870, -0.374748, -0.303332, 0.163116, 0.108655, -0.219231, -0.330167, 0.142039, 0.293159, 0.117994, -0.566227, -0.256439, 0.417966, 0.361774, -0.178768, -0.539462, 0.101711, 0.201592, -0.045078, -0.057571, 0.154424, 0.324263, -0.263802, -0.420632, 0.229591, 0.373046, -0.025296, -0.701182, -0.501080, 0.133704, 0.249905, 0.215835, -0.454771, -0.044165, -0.005527, 0.017617, 0.049022, 0.191214, 0.088273, -0.678770, -7.969183, 0.073754, 0.563195, 0.439160, -0.549870, -7.716753, -0.016651, 0.127697, 0.052368, 0.139401, 0.492509, -0.094706, -0.755296, -0.343173, 0.163468, 0.274683, -0.159948, -0.403521, 0.052110, 0.442550, 0.350980, -0.443471, -0.622953, -0.215478, 0.048818, 0.427487, 0.196871, 0.111342, -0.022566, -0.206366, -0.563221, 0.112788, 0.355778, -0.157903, -0.720358, -0.434647, 0.292444, 0.325768, -0.280017, -0.607409, -0.089265, 0.450934, 0.315585, -0.045290, 0.144318, -0.377727, -0.691486, -0.229448, 0.404448, 0.783035, -0.065362, -0.689372, -0.434743, 0.039601, 0.206380], 
				[0.475647, -0.276506, -0.822769, -0.617557, -0.212005, 0.125825, -0.056256, 0.181765, 0.606424, -0.001616, -0.416997, -0.175178, -0.031295, -0.315984, -0.354186, 0.307724, 0.229439, -0.211512, -0.031163, 0.387565, -0.195548, -0.741798, -0.336682, 0.072471, 0.016265, -0.192730, 0.337954, 0.440079, -0.068179, -0.510758, 0.112099, -0.103704, -7.529729, -0.550226, 0.615337, 0.650086, -0.013138, -0.084440, 0.008728, -0.615938, -0.787755, -0.301805, 0.414793, 0.132588, -0.163246, 0.157485, 0.068999, -0.304735, -0.123568, 0.319879, -0.054278, -0.763638, -0.549472, 0.091846, 0.149553, 0.084703, 0.163163, 0.183123, -0.439788, -0.751041, -0.149821, 0.204132, 0.081037, -0.037595, 0.447434, 0.074775, -0.179874, -0.108429, 0.154803, -0.260587, -0.500454, -0.067902, 0.197361, 0.192517, -0.046218, 0.103086, 0.098365, -0.346403, -0.396221, -0.137156, 0.158341, -0.000260, 0.039334, 0.156288, 0.179083, 0.203627, 0.085124, -0.111952, -0.489572, -0.436729, 0.078168, 0.134620, 0.267102, 0.296723, -0.002612, -0.454589, -0.652382, -0.258121, 0.340081, 0.038626, 0.155729, 0.177508, -0.180726, -0.241989, 0.090973, 0.310443, 0.005965, -0.703847, -0.315417, -0.175132, 0.119460, 0.215764, 0.467413, 0.101493, -7.030935, -0.689062, 0.066558, 0.262229, -0.051871, 0.058417, 0.332923, 0.057232, -0.214847, 0.147028, 0.196315, -0.336793, -0.770143, -0.071822, 0.303895, 0.124705, 0.098577, 0.255986, 0.082972, -0.617530, -0.560189, 0.178034, -0.094808, -0.249715, 0.058469, 0.325140, 0.226525, -0.001377, 0.188065, 0.328427, -0.788420, -7.500130, -0.114856, 0.459598, 0.248164, 0.101461, 0.189332, -0.225803, -8.382045, -0.433868, 0.350022, 0.073594, -0.259946, -0.151837, 0.410012, -0.095563, 0.011019, 0.306530, 0.245655, -0.447576, -0.759627, -0.039780, 0.195216, -0.020546, 0.400496, 0.601006, -0.250327, -8.302775, -0.300767], 
				[-0.406323, -0.133592, 0.206309, 0.114922, 0.076021, 0.282614, 0.130480, -0.048625, 0.021481, 0.061702, -0.023792, 0.084935, 0.036109, 0.132635, 0.070774, 0.195584, 0.207796, 0.017208, 0.147049, 0.137260, -0.128012, -0.019025, -0.260765, -0.061430, 0.086616, 0.004391, 0.266624, 0.201398, 0.099421, 0.114031, -0.103029, -0.049673, 0.052662, 0.093358, 0.025193, 0.255922, 0.072819, 0.222366, 0.219904, 0.121502, -0.004636, -0.180311, -0.098246, -0.003726, -0.120602, 0.191874, -0.016593, 0.159179, 0.302249, 0.128167, 0.144760, -0.003526, -0.064317, 0.083111, -0.012085, -0.108966, 0.094355, 0.018709, 0.147112, 0.185508, 0.020937, 0.140968, 0.086503, -0.162973, -0.035453, -0.237020, -0.148723, -0.019797, -0.004950, 0.058346, 0.302109, 0.254275, 0.105887, 0.116021, -0.221674, -0.092471, -0.149317, -0.213597, 0.201208, -0.028080, 0.235809, 0.221759, 0.058345, 0.109995, -0.121932, -0.333666, -0.201326, -0.375242, 0.013909, -0.178474, -0.042063, -0.051934, -0.103952, 0.190266, 0.080944, -0.291667, -0.274529, -0.171002, -0.244201, -0.050152, -0.059326, -0.198426, 0.064395, 0.026231, 0.072291, 0.080439, -0.257992, -0.306884, -0.217490, -0.127919, -0.019703, -0.017678, 0.024263, 0.057992, 0.161993, 0.242970, 0.095009, -0.126816, 0.044217, 0.098750, -0.076762, -0.011268, -0.066484, 0.094440, -0.024181, 0.001626, 0.156615, 0.098631, -0.158487, -0.001324, -0.094561, -0.095802, -0.086348, -0.001426, 0.033404, 0.009040, -0.070093, 0.009301, -0.229094, -0.212997, -0.094384, -0.182429, -0.129140, -0.230245, -0.329629, -0.093247, -0.213049, -3.360966, -4.042376, -3.816169, -3.808827, -4.231208, -4.359594, -4.415465, -4.122014, -4.093876, -4.027317, -5.050045, -4.164091, -4.543043, -3.764854, -3.603618, -4.703815, -5.002598, -4.645310, -4.318480, -4.319843, -4.404808, -4.067131, -3.837227, -4.088174, -4.530317, -3.228080], 
				[0.345244, -0.575743, -0.785444, 0.022867, 0.322601, -0.101950, -0.281446, 0.005527, 0.067731, -0.505905, -0.379627, 0.396258, 0.404646, -0.521873, -0.906970, 0.041706, 0.325450, -0.050627, -0.629377, -0.013120, 0.189755, -0.263341, -0.436059, 0.231148, 0.516740, -0.282850, -7.853430, -0.466222, 0.493353, 0.269794, -0.306964, -0.466490, 0.052982, 0.200351, -0.171416, -0.113662, 0.196634, -0.108620, -0.683025, -0.212346, 0.294578, 0.150971, -0.315362, -0.320713, 0.189898, 0.185255, -0.573191, -0.129753, 0.477036, 0.333443, -0.558340, -0.579870, 0.160792, 0.308260, -0.401412, -0.484116, 0.369462, 0.200741, -0.464364, -0.497492, 0.027340, 0.526567, -0.536814, -0.780110, 0.056619, 0.510578, 0.050864, -0.367873, -0.096671, 0.000804, -0.311402, -0.644785, 0.047880, 0.560872, -0.120476, -0.653540, -0.197623, 0.287784, 0.142780, -0.272711, -0.179277, 0.050173, -0.186881, -0.383973, 0.091874, 0.453482, -0.056168, -7.363361, -0.163239, 0.807834, 0.332008, -0.631133, -7.306300, -0.055574, 0.017077, -0.252060, 0.096887, 0.406068, 0.089798, -0.696405, -0.449243, 0.176155, 0.150003, -0.390405, -0.478470, 0.058122, 0.121721, -0.066069, -0.201123, 0.192402, 0.299421, -0.343823, -0.410661, 0.204211, 0.267811, -0.345986, -0.537897, -0.070593, 0.238088, -0.170798, -0.293982, 0.286542, 0.307208, -0.047571, -0.559491, -0.072540, 0.350367, -0.164788, -0.597993, -0.061613, 0.445120, 0.077503, -0.358393, -0.026539, 0.590425, 0.049303, -7.754998, -0.516782, 0.366078, 0.380453, -0.156634, -0.325520, 0.044669, 0.045709, -0.084475, -0.003848, 0.363397, -0.207691, -0.549520, -0.352417, 0.546339, 0.340534, -0.326890, -0.560712, 0.131697, 0.093985, -0.261330, -0.003944, 0.449413, -0.169508, -6.931920, -6.236745, 0.607088, 0.541813, -0.213458, -0.525142, -0.094841, 0.543326, -0.124156, -0.313018, 0.002013, 0.233719, 0.047018], 
				[0.242208, 0.334343, -0.226949, 0.223786, 0.562404, -0.515560, -9.012436, 0.105159, 0.266317, -8.081016, -0.647625, 0.263930, 0.109584, -0.650968, -0.299276, 0.415243, -0.335896, -0.368046, 0.422614, 0.378227, -1.254562, -8.003584, 0.366429, 0.020264, -0.519911, 0.195175, 0.351657, -6.382154, -0.649260, 0.482973, 0.084383, -0.719823, -0.085608, 0.529565, -0.037459, -0.684785, -0.042090, 0.205473, -6.733071, -0.419919, 0.624093, -0.005457, -7.471645, -0.376905, 0.369006, -0.115432, -0.029169, 0.401174, 0.328231, -0.612984, -0.407596, 0.101039, -0.099537, -0.375059, -0.118747, 0.227876, -0.352356, -0.564889, 0.189908, 0.104544, -0.124462, 0.523842, 0.374357, -0.336311, -0.809186, -0.223440, 0.141617, -0.031428, -0.209109, -0.047950, -0.007972, -0.223723, -0.221159, 0.269037, -0.239079, -0.192742, 0.166877, 0.233251, -0.246452, -0.427875, -0.046021, -0.084352, -0.002324, 0.083935, 0.100733, -0.370175, -0.229997, 0.169494, 0.346580, 0.119682, 0.033590, 0.068902, -0.021097, -0.545289, -0.232917, 0.260965, -0.253688, -0.217813, 0.122293, 0.021149, -0.539402, -0.196118, 0.463866, 0.174086, -0.336365, 0.130955, 0.273533, -0.169698, -0.356909, 0.027465, 0.137243, -0.291819, -0.017072, 0.377372, -0.190617, -0.417702, 0.283710, 0.301172, -0.142324, 0.140319, 0.382888, -0.054359, -0.522960, 0.109561, 0.364599, -0.303006, -0.670721, 0.134527, 0.084141, -0.622733, -0.339789, 0.543264, 0.301257, -0.376314, 0.074408, 0.340278, -0.509032, -0.696394, 0.261988, 0.265425, -0.640835, -0.236528, 0.317884, 0.127379, -0.199913, 0.179321, 0.320702, -0.339276, -0.395201, 0.062081, 0.172117, -0.563390, -0.281989, 0.225288, -0.333566, -0.402452, 0.217722, 0.181131, -0.471005, -0.223930, 0.374421, 0.243837, -0.350115, -0.102956, 0.407896, -0.007471, -0.226748, 0.174796, 0.202471, -0.372829, -0.242385, 0.295040, 0.035736], 
				[-0.808739, -0.114369, 0.210303, 0.333061, 0.316767, -0.192840, -0.436159, -0.655106, -0.113647, 0.288237, 0.516271, 0.057825, -0.642986, -0.585625, 0.171464, 0.572548, 0.244968, -0.260114, -0.589753, -0.443564, -0.291649, 0.069725, 0.483588, 0.486171, -0.350833, -7.274006, -7.525851, 0.349940, 0.690147, 0.044741, -6.991835, -0.700406, -0.030820, 0.192516, 0.198426, 0.161580, -0.132664, -0.587295, -7.092378, -0.190305, 0.575725, 0.552376, -0.225881, -0.988764, -0.618496, 0.171768, 0.280645, 0.145689, -0.138619, -0.231325, -0.226516, -0.298322, 0.064045, 0.358868, 0.312599, -0.359719, -7.249945, -0.497192, 0.452980, 0.427082, 0.101027, -0.644127, -0.567138, -0.138336, 0.169862, 0.249489, 0.063617, -0.096296, -0.564670, -0.414136, 0.132159, 0.400736, 0.291036, -0.304657, -0.759901, -0.391439, 0.034999, 0.186997, 0.222410, -0.086804, -0.337385, -0.755888, -0.275846, 0.445193, 0.567755, -0.014333, -0.653454, -0.670061, -0.212725, 0.336071, 0.330933, 0.118429, -0.221632, -0.449588, -0.566687, 0.007739, 0.329790, 0.561216, -0.124262, -1.029798, -0.720033, 0.254772, 0.455568, 0.165451, -0.298315, -0.413485, -0.192770, -0.084825, 0.085657, 0.252169, 0.216839, -0.460049, -7.597158, -0.401907, 0.366115, 0.633776, 0.047107, -0.625741, -0.585560, 0.153070, 0.275886, 0.109542, 0.010587, -0.063775, -0.292680, -0.582765, 0.033666, 0.433324, 0.412965, -0.386936, -0.811594, -0.373818, 0.319322, 0.362072, 0.127780, -0.262703, -0.459319, -0.216659, -0.178603, 0.172382, 0.266935, 0.223143, -0.287472, -0.573778, -0.125246, 0.350231, 0.540122, -0.194650, -0.814887, -0.708312, 0.128679, 0.239839, 0.168468, -0.049957, -0.017740, -0.417186, -0.321988, -0.081168, 0.346595, 0.260450, -0.326524, -0.645236, -0.214156, 0.256633, 0.124925, 0.030581, -0.201961, -0.215042, -0.213914, -0.052105, 0.216150, 0.383146, 0.263217], 
				[-0.134259, 0.423354, 0.084842, -0.429960, 0.277989, 0.428131, -0.170172, -0.360551, -0.775872, 0.014655, 0.359074, 0.061201, -0.283953, -0.567372, -0.405464, 0.186381, 0.336236, 0.050820, -0.297518, -0.192918, 0.259138, 0.444751, -0.331722, -6.633212, -0.842751, 0.340893, 0.606184, -0.042464, -0.658642, -0.288395, 0.223288, 0.111328, -0.368473, -0.684212, -0.129114, 0.256497, 0.312532, -0.027491, -0.523951, -0.461885, -0.062865, 0.224003, 0.244592, -0.340876, -0.289611, 0.196923, 0.136005, -0.219091, -0.430689, -0.013453, 0.338387, -0.240254, -0.488776, -0.165695, 0.326198, 0.187752, -0.369425, -0.636777, -0.173409, 0.323555, 0.347594, 0.049191, -0.322901, -0.321343, -0.031975, 0.248375, 0.045092, -0.203391, -0.284759, 0.535765, 0.589122, -0.320856, -7.354331, -8.428787, 0.448761, 0.453770, -0.077103, -0.396728, -0.172163, -0.044768, 0.136842, -0.245507, -0.135525, 0.016748, 0.015919, 0.186633, 0.225028, -0.133026, -0.602117, -0.224493, 0.126837, 0.350717, -0.190472, -0.227823, 0.072945, 0.049230, -0.140135, 0.095208, 0.095760, 0.235848, -0.082190, 0.029473, -0.036265, 0.005484, -0.369398, -0.602579, -0.224848, 0.587989, 0.525923, -0.011752, -0.229654, -0.154795, -0.229530, 0.023659, -0.303003, 0.003742, -0.008788, -0.106432, 0.321279, 0.320419, -0.208230, -0.461252, -0.188774, 0.314397, -0.011158, -0.301410, 0.042581, 0.288103, -0.166865, -0.399469, -0.042532, 0.198077, 0.233865, -0.060367, -0.210293, 0.138570, 0.082240, -0.111996, -0.194629, -0.223661, 0.158478, 0.325475, 0.224735, -0.048103, -0.498249, -0.346664, 0.102438, 0.399108, -0.005182, -0.452403, 0.243515, 0.455022, 0.209832, -0.800445, -7.594966, -0.387742, 0.638077, 0.644276, -0.033023, -0.559366, -0.172866, 0.179261, 0.181805, -0.486367, -0.214187, -0.056280, 0.570046, 0.490197, 0.091501, -7.478688, -0.588819, 0.184743, 0.373829], 
				[-0.155795, -0.468198, -0.596424, -0.082551, 0.075956, 0.152471, 0.235885, 0.113843, -0.423610, -0.666921, -0.485338, 0.008669, 0.256753, 0.137206, 0.440060, 0.131404, -0.491400, -0.615196, -0.299295, -0.005185, 0.258419, 0.351888, 0.292430, -0.158907, -0.883185, -0.832618, -0.133749, 0.151665, 0.262017, 0.460151, 0.208064, -0.257951, -0.551518, -0.511739, -0.062324, 0.075305, 0.300200, 0.255608, 0.038941, -0.485945, -0.975672, -0.434811, 0.063913, 0.240110, 0.390350, 0.228598, 0.095594, -0.479753, -0.765155, -0.418161, 0.337671, 0.407531, 0.363530, 0.137651, -0.369879, -0.976746, -0.838676, -0.177283, 0.259481, 0.362160, 0.470930, 0.330100, -0.404082, -0.766251, -0.710940, 0.070623, 0.347731, 0.436792, 0.337697, -0.061065, -0.978700, -1.136507, -0.605777, 0.177267, 0.325272, 0.395888, 0.356064, -0.029690, -0.601171, -0.645263, -0.141693, 0.212178, 0.312524, 0.443819, 0.263937, -0.559183, -1.269229, -0.995954, -0.098348, 0.442930, 0.364706, 0.316668, 0.054765, -0.460505, -0.701572, -0.483183, 0.052956, 0.347905, 0.432441, 0.348951, -0.118775, -1.043442, -8.181266, -0.501211, 0.191418, 0.465551, 0.412212, 0.284162, -0.334134, -0.672381, -0.579518, -0.049931, 0.223374, 0.569305, 0.347203, 0.024595, -9.303216, -1.097597, -0.743552, -0.008401, 0.425788, 0.479042, 0.346604, -0.092331, -0.606349, -0.541837, -0.239003, -0.007780, 0.391482, 0.620589, 0.230473, -0.331421, -7.212646, -8.694514, -0.423025, 0.303087, 0.405342, 0.376608, 0.170643, -0.347362, -0.630136, -0.331630, -0.117131, 0.095623, 0.360893, 0.273548, 0.038441, -0.716889, -7.990653, -0.618540, 0.051519, 0.480949, 0.322267, 0.173752, -0.232747, -0.427938, -0.341839, -0.089480, 0.081125, 0.280895, 0.235674, 0.046688, -0.221309, -0.571000, -0.555649, -0.040113, 0.142724, 0.228195, 0.364592, 0.128353, -0.249647, -0.295849, -0.047672], 
				[0.006069, 0.710700, -0.345207, -0.988597, -0.426014, 0.422639, 0.422883, 0.131993, -0.328082, -0.529209, -0.125813, 0.099980, 0.502954, 0.030693, -0.645268, -0.487012, 0.190080, 0.708141, -0.105228, -0.799860, -0.527198, 0.091710, 0.197824, -0.041351, -0.269071, 0.043463, 0.096453, -0.135715, -0.358415, -0.003512, 0.089361, 0.248224, 0.121197, -0.121989, -0.403848, -0.193975, 0.022019, 0.341317, -0.060552, -0.453252, -0.439246, 0.012831, 0.238676, -0.332182, -0.426903, 0.086757, 0.321372, 0.063680, -0.306766, -0.185448, 0.026543, -0.076526, 0.074477, -0.220189, -0.258648, -0.360536, 0.178379, 0.495222, 0.054174, -7.639678, -0.767698, 0.167859, 0.567534, 0.022903, -6.984692, -0.468334, 0.279708, 0.089462, 0.029221, -0.225770, -0.100534, -0.159514, -0.050245, 0.096598, 0.394547, -0.216487, -0.355565, 0.056850, 0.259508, -0.214259, -0.389130, -0.133900, 0.479043, 0.109902, -0.591404, -0.505718, 0.238333, 0.385516, 0.009853, -6.777077, -0.181373, -0.138367, 0.240076, 0.206485, -0.011339, -0.249389, -0.221407, 0.267534, 0.314575, 0.011015, -0.514884, -0.072267, 0.402329, 0.255039, -7.553669, -0.501281, 0.108506, 0.418828, 0.080456, -0.457495, -0.292630, 0.027172, 0.142217, 0.332290, 0.043439, -0.475265, -8.573494, -0.051217, 0.464432, 0.325848, -0.280307, -7.386698, -0.016624, 0.288822, 0.063044, -0.277368, -0.266387, 0.114568, 0.065732, -0.312218, 0.010153, 0.239639, -0.129660, -0.181878, -0.180046, 0.082784, -0.040698, 0.030647, 0.119831, 0.057098, -0.341967, -0.400385, 0.217856, 0.493495, 0.145814, -0.489673, -0.400028, 0.328535, 0.301348, -0.229760, -0.540775, -0.164055, 0.229623, 0.206789, 0.056938, -0.244749, -0.452419, -0.312461, 0.302579, 0.571083, -0.017569, -0.867821, -0.343071, 0.569427, 0.419846, -0.561370, -0.913292, -0.173449, 0.600860, 0.248138, -0.329338, -0.537138, -0.223699], 
				[-0.498337, 0.218299, 0.149202, 0.223969, 0.080247, -0.388566, -0.692265, -0.205847, 0.119910, 0.307438, 0.307416, -0.326491, -0.673427, -0.398632, 0.147632, 0.550016, 0.423328, -0.027021, -0.660145, -0.589925, -0.188251, 0.194609, 0.330060, 0.276998, -0.239268, -0.685850, -0.583099, 0.090887, 0.340436, 0.398864, 0.106170, -0.686013, -1.009025, -0.366366, 0.373720, 0.435553, 0.213322, -0.419461, -0.632680, -0.360602, 0.097356, 0.346768, 0.335538, 0.010836, -8.338446, -0.753747, -0.241194, 0.095305, 0.216686, 0.274937, -0.178035, -0.617477, -0.481899, -0.007153, 0.362599, 0.406508, 0.009770, -0.513525, -0.829235, -0.398044, 0.231686, 0.397287, 0.197103, -0.110979, -0.450510, -0.568837, 0.059674, 0.261409, 0.200738, 0.232996, -0.667053, -0.779285, -0.374881, 0.251225, 0.317387, 0.239638, -0.108157, -0.816176, -0.466543, 0.169620, 0.293891, 0.296549, 0.094696, -0.458871, -0.931055, -8.358567, 0.339051, 0.494782, 0.237469, -0.074361, -0.676833, -0.543096, 0.024966, 0.400514, 0.260355, 0.072156, -0.334617, -8.124926, -0.346725, 0.389328, 0.322667, 0.224934, -0.253906, -8.454205, -0.457679, 0.103924, 0.362197, 0.365866, 0.184071, -0.478079, -0.623162, -0.433684, 0.121704, 0.303999, 0.225844, -0.054336, -0.618285, -0.383302, 0.099524, 0.254339, 0.388113, 0.171104, -0.285078, -7.554135, -0.528527, 0.123108, 0.416170, 0.282625, 0.075222, -0.572924, -0.496468, 0.016273, 0.319784, 0.234025, -0.015425, -0.406322, -0.662770, -0.269592, 0.112461, 0.192377, 0.438989, 0.022737, -0.737792, -0.486289, 0.105098, 0.350123, 0.379399, 0.068809, -0.222072, -0.733172, -0.483550, 0.134135, 0.513277, 0.363660, -0.270697, -0.658361, -0.580182, 0.159336, 0.305558, 0.376705, -0.024212, -0.267083, -0.470303, -0.216835, -0.022096, 0.124188, 0.224787, 0.040749, -0.380463, -0.087128, 0.144553, 0.359580, 0.188791], 
				[-0.190769, -0.108124, 0.171325, -0.485073, -0.475614, 0.165599, 0.336519, -0.379913, -0.697372, 0.246005, 0.267413, -0.386796, -0.310038, 0.161938, 0.321965, -0.240561, -0.152375, 0.296444, 0.032887, -0.298690, 0.093909, 0.332225, -0.178130, -6.564591, -0.038217, 0.534588, 0.371640, -0.402914, -0.496545, 0.118411, 0.119628, -0.205063, 0.467657, 0.015495, -0.655866, -0.139167, 0.357154, 0.097684, -0.848341, -0.520418, 0.527826, 0.049325, -0.475210, -0.225803, 0.238334, 0.197050, -0.345449, 0.042544, -0.066453, -0.280342, -0.238186, 0.328293, 0.475295, -0.290605, -8.698933, 0.093478, 0.336178, 0.197284, -0.399905, 0.044524, 0.318645, -0.239619, -0.479903, 0.043419, 0.180578, -0.059289, 0.057726, -0.009288, -0.322398, -0.560241, 0.144630, 0.476357, 0.069989, -0.415937, -0.254266, 0.071626, -0.026471, 0.102844, 0.335960, 0.150695, -0.260942, 0.003721, 0.169191, -0.070659, -0.595818, -0.166013, 0.123357, 0.051099, -0.385705, 0.028962, 0.353378, -0.005302, 0.073908, -0.027129, -0.437963, -0.224725, 0.294444, 0.500995, 0.008747, -8.012067, -0.348274, 0.170470, -0.005119, -0.151380, -0.090230, -0.254577, -0.237988, -0.089578, 0.457105, -0.074351, -0.274390, 0.054136, 0.297029, -0.033799, -0.727727, -0.244321, 0.433476, 0.098195, -0.379485, -0.338647, 0.100632, 0.067376, 0.116799, 0.337021, 0.000343, -8.050828, -0.370874, 0.348377, 0.535226, -0.273715, -0.594319, 0.218550, 0.157794, -0.427297, -0.290003, 0.292457, 0.198162, -0.162846, -0.115755, 0.234453, -0.284445, -0.230341, 0.193327, 0.215206, -0.308026, -0.593177, -0.062086, 0.276886, -0.245546, -0.321253, 0.435792, 0.176353, -0.401927, -0.140523, 0.322830, 0.148102, -0.642373, -0.227071, 0.339270, -0.240437, -0.498517, 0.048923, 0.640313, 0.017073, -8.959415, -0.455012, 0.388218, 0.055227, 0.107994, 0.100597, -0.209892, -0.108862, -0.056972], 
				[0.170900, -0.946269, -8.049992, -0.351928, 0.068992, 0.317740, 0.096410, -0.154624, 0.206532, 0.682854, 0.206617, -0.522599, -7.429059, -0.849335, 0.028301, 0.477815, 0.473440, 0.308085, -0.038404, -0.182655, 0.066663, 0.116495, -0.256484, -0.692075, -7.394354, -0.085037, 0.463988, 0.616048, 0.356151, 0.111128, -0.246296, -0.420395, -0.091551, -0.044813, -0.127997, -0.197885, 0.166458, 0.142157, 0.186243, -0.035690, 0.055257, -0.082296, -0.359542, -0.478605, -0.185906, 0.005656, 0.031582, 0.177207, 0.189708, 0.181723, 0.151602, -0.279297, -0.178691, -0.336528, -0.224420, -0.083344, 0.111059, 0.020803, 0.338393, 0.178558, 0.171937, -0.330207, -0.584122, -0.399977, -0.311429, 0.098798, 0.140004, 0.384348, -0.262778, 0.028067, 0.213281, 0.045265, -0.250498, -0.668362, -0.374494, 0.511001, 0.357583, -0.011268, -0.087471, 0.059428, 0.179782, -0.157039, -0.272722, -0.358442, -0.350255, 0.050148, 0.150564, 0.326636, 0.313103, 0.152201, -0.098039, -0.157540, -0.093297, -0.068224, -0.168328, -0.440229, -0.185209, 0.626403, 0.555952, 0.125973, -0.197168, -6.469098, -0.447643, -0.035535, 0.035589, -0.048444, -0.264904, 0.006328, 0.292839, 0.398104, 0.172803, -0.161860, -0.539366, -0.418132, -0.123070, 0.232224, 0.075298, 0.041553, -0.038834, 0.115468, 0.246718, -0.234240, -0.268289, -0.414423, -0.171762, -0.283490, -0.136591, 0.112932, 0.292860, 0.284110, 0.108614, 0.039288, 0.018775, -0.031670, -0.114304, -0.008912, -0.321727, -0.069728, 0.226290, 0.362476, 0.556869, 0.039718, -0.416187, -6.902374, -0.491982, -0.128861, 0.031044, -0.135114, 0.130441, 0.398943, 0.357220, -0.279747, -0.488057, -0.138695, -0.056078, -0.209598, -0.184397, 0.011075, 0.130674, 0.368032, 0.372835, -0.037369, -0.477707, -8.450586, -0.120570, -0.017601, -0.094224, -0.199102, -0.134973, 0.109334, 0.188465, 0.065226, 0.128304], 
				[-1.116041, 0.094350, 0.466664, 0.161913, -0.221572, -0.207667, -0.285063, -0.096790, 0.061898, -0.242108, 0.067125, 0.334194, 0.416756, -0.384850, -0.703798, 0.340538, 0.737299, -0.305604, -8.601257, -0.431654, 0.484637, 0.531749, 0.096959, 0.033376, -0.689699, -0.743367, 0.271096, 0.571500, 0.011874, -0.440561, 0.072970, -0.076539, -0.166937, -0.277469, 0.077110, 0.005000, -0.290952, -0.142758, -0.064611, 0.012596, 0.446593, 0.421167, -0.817761, -7.899453, -0.104306, 0.635772, 0.058610, -0.808586, -0.147581, 0.205675, 0.178031, -0.040913, -0.076591, -0.359395, -0.247791, 0.038384, -0.037715, -0.208250, 0.221455, 0.638081, 0.044043, -0.645872, -0.158098, 0.097011, 0.094928, -0.117294, -0.010393, -0.423657, -0.163237, 0.261483, 0.617498, -0.510626, -1.158904, -0.094490, 0.587609, -0.086571, -0.867484, -0.320151, 0.281343, 0.128519, -0.030131, -0.110570, -0.426996, -0.094428, 0.136361, 0.176848, -0.288638, 0.046261, 0.293203, -0.006621, -0.659035, -0.166377, 0.296522, 0.122826, -0.376934, -0.241433, -0.084115, -0.073419, 0.315061, 0.369337, -0.655826, -6.963783, -0.018421, 0.706802, 0.146245, -0.585224, -0.300493, 0.161826, 0.248166, 0.024135, -0.098031, -0.235907, 0.135211, 0.047965, -0.398880, -0.382426, 0.432095, 0.755072, -0.127157, -8.251536, -0.528549, 0.489318, 0.516704, 0.086787, -0.237207, -0.115724, -0.178048, 0.242988, 0.466907, -0.005005, -0.818914, -0.090290, 0.261100, 0.008292, 0.035634, 0.079369, 0.053910, -0.196286, -0.424782, -0.304324, 0.071011, 0.274831, 0.095585, -0.267155, -0.493726, 0.104243, 0.669738, 0.003928, -8.122648, -0.703454, 0.322877, 0.319635, 0.043440, -0.061236, -0.215517, -0.057133, -0.022472, -0.066055, -0.315833, -0.218073, 0.004960, 0.186055, -0.031286, -0.083079, 0.227926, 0.337900, -0.171805, -0.397779, -0.244671, 0.004141, 0.081047, 0.297900, 0.048751], 
				[0.570156, 0.205565, -0.523526, -0.149616, 0.439033, 0.125522, -0.719838, -0.617462, 0.309101, 0.521015, -0.426900, -0.458631, 0.126330, 0.090158, -0.568710, -0.484326, 0.245758, 0.291472, -0.170965, -0.309698, 0.438607, 0.368552, -0.270943, -0.722404, -0.231229, 0.289770, -0.108132, 0.103787, 0.064041, 0.143552, -0.132067, -0.081478, -0.268941, -0.139766, -0.129969, 0.297902, 0.238370, -0.030886, -0.211036, 0.058741, -0.057359, -0.072882, -0.462575, 0.093841, 0.117808, -0.014613, -0.145005, 0.111019, 0.123851, -0.314517, -0.659046, 0.178989, 0.373386, 0.098099, -0.415344, 0.141786, 0.540671, -0.280022, -7.325970, -0.420652, 0.348914, 0.327667, -0.388516, 0.151700, 0.477209, 0.006096, -8.164137, -0.348430, 0.173462, 0.139830, -0.360482, -0.050089, 0.411005, 0.305852, -0.302273, -0.215686, -0.230632, -0.144203, -0.192690, -0.011980, 0.211474, 0.332011, 0.100910, -0.023808, -0.031725, -0.368442, -0.327367, 0.088715, 0.225061, 0.123267, -0.147862, -0.032424, -0.085699, -0.432847, -0.344271, 0.018394, 0.154285, 0.040846, 0.084419, 0.495788, 0.038533, -0.585422, -7.963838, 0.189447, 0.320748, -0.232485, -0.135938, 0.644726, 0.227614, -7.502003, -0.420186, -0.013913, 0.142680, -7.932446, -0.461270, 0.619869, 0.506785, -0.357430, -0.448099, 0.100395, 0.169549, -0.500075, -7.776507, 0.290821, 0.491377, 0.084187, -0.403982, 0.128060, 0.167498, -0.456433, -0.644587, -0.003825, 0.389091, 0.000475, -0.193192, 0.082584, 0.107538, -0.219094, -0.353144, 0.160525, 0.278503, -0.015720, 0.027711, 0.330135, -0.045383, -0.606048, -0.172171, 0.286229, 0.020500, -0.277924, 0.054091, 0.560225, 0.021691, -0.446142, -0.209767, 0.331685, -0.323458, -0.558955, -0.068797, 0.788287, 0.254765, -0.496592, -0.238855, 0.453496, -0.121320, -0.918285, -0.242632, 0.422818, 0.250074, -0.341084, 0.078591, 0.279971, 0.149251], 
				[-0.040409, 0.047685, -0.162974, -0.706755, 0.343945, 0.557045, -0.055690, -5.022694, -0.132326, 0.409290, -0.019179, -0.730464, -0.128125, 0.342010, 0.010950, -0.706321, 0.114559, 0.333806, -0.070557, -0.906459, 0.286632, 0.588543, 0.109917, -0.807246, -0.304452, 0.135044, -0.026745, -0.431020, -0.057339, 0.359452, -0.095067, -0.833456, 0.005116, 0.450297, -0.086795, -0.698911, 0.034356, 0.361885, 0.240331, -0.623131, -0.087415, 0.086023, -0.158030, -0.550106, 0.121192, 0.231829, 0.040886, -0.670603, -0.142236, 0.268920, -0.104006, -0.325091, 0.200955, 0.303022, 0.257750, -0.372708, -0.243670, 0.063792, -0.154102, -0.452634, -0.243021, 0.155278, 0.301048, -0.307770, -0.200871, 0.207594, 0.109076, -0.437475, -0.059956, 0.369622, 0.385628, -0.446856, -7.187562, -0.109833, -0.008215, -0.458471, -0.047398, -0.003871, -0.054663, -0.675370, -0.059652, 0.591618, 0.290919, -7.351192, -0.479271, 0.345689, 0.337503, -0.232823, -0.147407, 0.043263, 0.059369, -8.191133, 0.259580, 0.548308, 0.088088, -7.816769, -0.398510, 0.294990, 0.293459, -0.455444, -0.061038, 0.186077, 0.107175, -0.445193, 0.025715, 0.271295, -0.149323, -8.151960, -0.453732, 0.394695, 0.206288, -0.347738, -0.145105, 0.260590, 0.182452, -0.472272, -0.217513, 0.304879, 0.104128, -0.379399, -0.106356, 0.193859, -0.077983, -0.606778, -0.136138, 0.323199, 0.245001, -0.372682, -0.392370, 0.180353, 0.473505, -0.197989, -0.441312, -0.082931, 0.128598, -0.100175, -0.025995, 0.125562, 0.127519, -0.697889, -0.706254, 0.030980, 0.079294, -0.322669, -0.455940, 0.143081, 0.382160, -0.304895, -0.401928, 0.274644, 0.165655, -0.314934, -0.436430, 0.192904, 0.513802, -0.371268, -0.677736, 0.207353, 0.274305, -0.111780, -0.591860, 0.117450, 0.285910, -0.089643, -0.354011, 0.227487, 0.277370, -0.263184, -0.339840, 0.183212, 0.341890, -0.415280, -0.458932], 
				[-0.094295, 0.003225, -0.008376, 0.069740, -0.078095, -0.818196, -0.892403, 0.395951, 0.680371, 0.170817, -0.816898, -7.966144, 0.046661, 0.373265, 0.291058, 0.029103, -0.392834, -0.161096, 0.098926, 0.103323, -0.225738, -8.780490, -0.151945, 0.335316, 0.389612, 0.026999, -0.425656, -0.345510, -0.082183, -0.014383, -0.070614, -0.242590, 0.148499, 0.401531, 0.142886, 0.113712, -0.784258, -7.466446, 0.021754, 0.556373, 0.268204, -0.121304, -0.502042, 0.345533, -0.079878, -0.277846, -0.226276, -0.171111, 0.348499, 0.053761, 0.161464, -0.142981, -0.677048, -0.254390, 0.269895, 0.272702, -0.190074, -0.655476, -0.036288, 0.237959, 0.134215, 0.052331, -0.383596, -0.200452, 0.356623, 0.121281, 0.010432, -0.736802, -8.296745, 0.091939, 0.550317, 0.411778, -0.455780, -0.686337, 0.120881, -0.066606, 0.185895, 0.094709, -0.202780, 0.033609, 0.314434, 0.354304, -0.331967, -0.873815, -0.054058, 0.309374, 0.324835, -0.366799, -0.784019, -0.258897, 0.168847, 0.185299, -0.010146, -0.266911, -0.114482, 0.274534, 0.507766, -0.029324, -0.835118, -0.440934, 0.075100, 0.291308, 0.025251, -0.318152, -0.420062, 0.008616, -0.144408, -0.078269, -0.238934, 0.009911, 0.230023, 0.462781, 0.340208, -0.517337, -7.460879, -0.306157, 0.238657, 0.513131, -0.054880, -0.470449, -0.249861, 0.174001, 0.130820, -0.210962, -0.308739, 0.032815, 0.273749, 0.495136, 0.408985, -0.245365, -0.592634, -0.165456, 0.019494, -0.029605, -0.138299, -0.393241, -0.082038, 0.065360, 0.246972, -0.319665, -0.268561, 0.175425, 0.249700, 0.128982, -0.358167, -0.657588, -0.085424, 0.350848, 0.153156, -0.329643, -0.241103, 0.043793, 0.055493, -0.083639, -0.284518, -0.105842, 0.012565, 0.384997, 0.364541, -0.009457, -0.522418, -0.315008, 0.245076, 0.308303, -0.149720, -0.581107, -0.112903, 0.415025, 0.482884, -0.065406, -0.562271, -0.315283, 0.218900], 
				[0.257495, 0.444666, 0.301001, -0.270602, -0.711351, -0.613737, -0.253641, -0.161212, 0.151431, 0.521364, 0.542647, -0.453858, -0.849388, -0.544958, 0.536741, 0.625273, 0.125774, -0.126002, -0.364225, -0.352381, -0.651842, -0.311864, 0.077244, 0.606127, 0.305976, -0.255158, -0.548387, -0.407605, 0.014808, -0.021388, 0.024447, 0.359480, 0.179633, -0.528938, -6.818035, -0.670603, 0.181986, 0.535231, 0.214423, 0.072879, -0.315561, -0.241697, -0.190228, -0.000928, 0.193794, 0.254103, 0.175667, -0.026079, -0.588134, -6.545040, -0.415225, 0.147979, 0.333337, 0.325324, 0.314691, -0.066465, -0.579802, -0.731498, 0.046516, 0.621749, 0.501473, -0.132825, -8.170982, -0.578066, -0.132508, -0.236008, -0.134619, 0.139860, 0.493956, 0.263473, -0.520436, -7.732405, 0.002848, 0.432370, 0.211732, 0.278238, 0.052198, -0.355684, -0.813961, -7.555008, -0.074752, 0.491598, 0.510608, 0.094074, -0.123136, -0.364962, -0.101974, 0.122736, 0.132118, 0.338312, 0.351961, 0.169286, -0.504199, -0.792365, -0.799792, 0.001134, 0.445649, 0.545862, 0.011084, -0.112278, -0.262433, -0.145744, 0.121472, 0.200070, 0.405880, 0.098564, -0.389084, -0.699800, -0.307584, -0.205385, -0.056630, 0.118890, 0.365469, 0.551361, -0.155070, -0.818218, -0.662070, 0.204406, 0.491789, 0.414868, -0.348403, -0.585028, -0.249370, -0.283220, -0.351063, 0.000992, 0.476519, 0.302513, -0.377801, -0.443538, 0.112008, 0.035833, 0.165401, 0.179271, 0.195425, -0.065577, -0.420625, -0.702247, -0.580606, -0.138127, 0.384925, 0.501463, 0.034719, -0.435442, -0.141349, -0.172479, 0.268748, 0.113116, 0.181659, 0.040065, -0.098593, -0.432535, -0.650234, -0.276479, 0.136806, 0.225027, 0.003736, 0.012094, -0.003943, -0.199535, -0.469555, -0.114472, 0.428247, 0.724501, 0.039746, -7.709781, -0.555365, -0.188816, 0.000057, -0.192842, -0.122110, 0.191019, 0.197077], 
				[0.098679, 0.139282, 0.366433, -0.088397, -0.845993, -0.795906, -0.050401, 0.662789, 0.527644, 0.169382, -0.247889, -8.324888, -8.034142, -0.124431, 0.350103, 0.028599, -0.076713, 0.212679, -0.255110, -0.508321, -0.370348, 0.109213, 0.235382, 0.105505, 0.328343, -0.602012, -1.054755, -0.628637, 0.364558, 0.581592, 0.308417, 0.082620, -0.575161, -0.916023, -0.456869, 0.103743, 0.272096, 0.241832, 0.214912, -0.198238, -0.531445, -0.844862, -0.021230, 0.240565, 0.167730, 0.360218, -0.102027, -8.773054, -0.900701, 0.155068, 0.571398, 0.271585, 0.058401, -0.167692, -0.918212, -0.897836, -0.127900, 0.142890, 0.058234, 0.139570, 0.232238, -0.082868, -0.454168, -0.250566, 0.082667, -0.006920, 0.099646, 0.189836, -0.524271, -7.204671, -0.390598, 0.377176, 0.338584, 0.224869, -0.023356, -0.548211, -0.754298, -0.319220, 0.342854, 0.306963, 0.138980, 0.368720, 0.163008, -0.536873, -8.537069, -0.097152, 0.477327, 0.380030, 0.218646, -0.246635, -0.633885, -0.466714, 0.233242, 0.424038, 0.385490, -0.054660, -0.277626, -0.626021, -0.598194, -0.204227, 0.275830, 0.270798, 0.139206, -0.002974, -0.403144, -0.603264, -0.305467, 0.278373, 0.333596, 0.280589, -0.075634, -0.554052, -0.575986, 0.043670, 0.411961, 0.364685, 0.167551, -0.167985, -0.428678, -0.634183, -0.249250, 0.261211, 0.449134, 0.505697, 0.053070, -0.296230, -0.652711, -0.450562, -0.057691, 0.140571, 0.130029, 0.142500, -0.338499, -0.523325, -0.160932, 0.335695, 0.323233, 0.301097, -0.090613, -0.343308, -0.643364, -0.443629, -0.196313, 0.323366, 0.411794, 0.384906, 0.115845, -0.242240, -0.500313, -0.208442, 0.198662, 0.307890, 0.137046, -0.170355, -0.485604, -0.366848, -0.083602, 0.186198, 0.412905, 0.086683, -0.317068, -0.579117, -0.387243, -0.181305, 0.265039, 0.557504, 0.521279, 0.237717, -0.245542, -0.359126, -0.256431, 0.058566, 0.256726], 
				[0.436755, 0.778823, 0.394985, -0.093588, -0.551275, -0.584534, -0.601860, -0.300759, 0.097358, 0.519895, 0.319955, 0.073385, 0.080561, -0.253953, -0.581271, -0.308985, -0.120103, 0.149997, 0.041460, -0.034858, 0.010921, -0.081910, -0.265733, 0.026515, -0.080553, -0.189345, -0.214474, -0.373885, 0.025337, 0.129753, 0.403402, 0.263228, 0.068087, -0.014010, -0.356624, -8.246298, -0.639017, -0.019546, 0.181552, 0.560248, 0.412735, 0.172101, -0.379058, -7.847577, -0.777203, -0.636158, -0.041373, 0.457712, 0.757975, 0.423727, -0.021135, -0.709112, -0.844030, -7.036654, -0.411267, 0.210183, 0.551718, 0.593241, 0.225896, -0.162447, -0.419050, -0.806325, -0.327067, -0.267985, 0.017790, 0.260336, 0.364134, 0.151012, -0.132613, -0.372603, -0.395721, -0.306800, -0.048617, 0.059578, 0.062963, -0.022231, 0.055235, 0.082713, 0.208310, -0.198678, -0.233507, -0.316167, -0.577978, -0.277527, -0.094498, 0.113378, 0.259485, 0.437306, 0.189061, -0.268953, -0.782439, -0.840824, -0.421849, 0.149956, 0.433306, 0.634197, 0.346261, 0.025331, -0.639420, -0.967007, -8.121623, -0.412922, 0.215350, 0.568897, 0.616579, 0.330937, -0.035628, -0.836955, -7.546133, -0.438721, 0.081764, 0.304825, 0.377029, 0.320924, 0.281076, -0.193745, -0.649520, -0.463197, -0.448426, -0.067504, 0.174566, 0.403122, 0.222287, 0.067839, -0.003406, -0.043702, -0.195750, -0.227224, -0.209280, -0.127956, -0.015757, 0.080668, 0.064187, 0.403005, 0.170027, -0.168586, -0.312458, -0.334812, -0.269429, -0.323281, 0.003535, 0.564396, 0.560722, 0.329460, -0.161301, -0.399059, -0.781273, -0.690787, -0.296584, 0.120528, 0.421292, 0.491219, 0.428934, -0.006231, -0.716398, -0.897211, -0.491910, -0.139704, 0.440135, 0.467051, 0.507800, 0.111881, -0.264706, -0.541489, -0.656540, -0.212633, -0.048360, 0.190464, 0.310648, 0.284255, 0.105351, -0.063416, -0.277686], 
				[-0.371165, 0.223277, 0.140935, -0.798799, -0.594061, -0.064347, -0.049464, 0.507704, 0.324741, -0.571082, -0.324143, 0.170143, 0.075644, -0.059942, -0.011759, -0.005757, 0.053348, -0.331747, -0.371618, -0.121029, 0.492590, 0.033282, -0.696099, -0.566492, 0.255684, 0.375357, 0.332125, -0.225263, -0.560448, 0.225584, 0.083001, -8.157958, -0.302851, 0.490336, 0.091865, -0.080885, -0.301757, -0.545137, -0.177364, 0.194839, -0.339535, -0.310313, -0.037553, 0.017960, -0.093353, 0.062808, -0.183459, -0.295980, 0.014799, 0.216573, -0.338462, -0.111942, 0.121636, 0.154725, 0.507311, -0.204310, -7.870345, 0.038913, 0.478027, -0.385519, -0.333496, 0.191228, 0.213040, 0.260670, -0.179081, -7.640643, 0.123288, 0.520304, -0.358399, -0.240776, 0.281371, 0.206984, -0.259939, -0.439285, -0.130194, 0.176575, 0.237417, -0.204491, -8.254869, -0.042220, 0.426954, 0.002383, 0.093424, 0.120537, -0.411487, -0.058180, -0.241145, -0.628487, 0.157685, 0.509601, 0.086277, 0.304998, -0.161782, -8.581427, -0.378439, 0.557130, 0.114454, -0.410329, -0.251639, -0.039999, 0.216891, 0.164408, -0.385291, -0.322721, 0.418312, -0.063611, -1.025360, -0.390029, 0.390530, 0.320467, 0.209505, -0.363123, -0.515057, 0.196204, 0.131031, -0.744113, -0.149864, 0.431359, 0.180969, 0.078737, 0.054394, -0.435426, -0.153740, -0.080763, -0.263722, 0.383315, 0.389604, -0.116218, -0.098363, 0.029928, -0.200424, -0.315947, 0.211935, 0.148921, -0.303348, -0.232173, 0.241377, 0.408269, 0.271499, -0.538431, -0.749068, 0.157090, 0.300711, -0.258947, -0.253312, 0.135759, 0.383010, 0.233660, -0.541127, -0.790614, 0.090382, 0.501530, -0.145477, -0.270039, -0.138795, 0.068890, 0.165484, 0.067949, 0.098028, 0.083054, 0.004742, -0.286291, -0.266506, 0.234437, 0.343981, 0.369820, 0.107045, -0.556353, -0.701160, -0.320823, 0.159963, 0.066889, 0.080571], 
				[0.191801, 0.255111, 0.318121, 0.086770, -0.101572, -0.220685, -0.248893, -0.700045, 0.056854, 0.599015, 0.468196, -0.529850, -0.419342, 0.344426, -0.037977, -0.096521, -0.053331, 0.284176, -0.268651, -0.533097, -0.184756, 0.169804, -0.092772, 0.194376, -0.098074, -0.144926, -0.128981, 0.059312, -0.065709, 0.239356, 0.191632, -0.349777, -0.085419, 0.002961, -0.049256, 0.054014, -0.033573, -0.318255, 0.065681, 0.168530, -0.313676, -8.393086, 0.131837, 0.798188, 0.011559, -0.941536, -0.058246, 0.353798, -0.279362, -0.167813, 0.235613, 0.125922, -0.103961, -0.143664, -0.114322, -0.212601, 0.168933, 0.344380, -0.166712, 0.050387, 0.141226, -0.048351, -0.320367, -0.172915, 0.123606, -0.247932, -0.211053, 0.107993, 0.141563, 0.134803, -0.331887, -0.360082, 0.055950, 0.239397, -0.165543, -0.426944, 0.357762, 0.230598, -0.187548, -0.588793, -0.007976, 0.259616, -0.175743, -0.073809, -0.205883, -0.073435, 0.057679, -0.115677, -0.276072, -0.114145, 0.347318, 0.182697, -7.469302, -0.179124, 0.365572, 0.134495, -0.181483, 0.199267, 0.256200, -7.385726, -0.243142, -0.077997, 0.043450, -0.079260, -0.304862, 0.001609, -0.016622, -0.031743, -0.241872, -0.070039, 0.483532, 0.254686, -0.110154, -0.389585, -0.181384, 0.178354, 0.242199, 0.077247, -0.021527, 0.035977, 0.233099, -0.628019, -7.667996, 0.222618, 0.476538, -0.140918, -6.908269, -0.217114, 0.139490, 0.133871, 0.057760, 0.532215, 0.076251, -0.597067, -0.255846, -0.103987, 0.263758, -0.070429, 0.156898, 0.051403, 0.088661, -0.090789, -0.376978, -0.334477, 0.356371, 0.363946, -0.223153, -7.448566, 0.050499, 0.060277, -0.289056, -0.218795, 0.229130, 0.540828, 0.118513, -0.487397, -0.543869, 0.188622, 0.238161, 0.109935, -0.311907, -0.023046, -0.002916, -0.049549, 0.030425, 0.201272, -0.173106, -0.141392, -0.082409, -0.237440, -0.193880, 0.349040, 0.380018], 
				[0.330686, -0.510241, -0.489516, 0.114378, 0.075110, -0.161737, 0.146996, 0.087388, -0.373604, -0.514086, 0.191812, 0.403810, -0.106843, -0.359158, -0.371135, -0.240730, -0.064284, 0.357466, 0.579751, -0.227791, -6.578410, -0.780315, 0.337274, 0.208031, -0.005780, 0.183444, -0.156063, -0.791083, -0.253397, 0.379695, 0.512289, -0.330040, -0.655927, -0.277663, 0.028206, -0.078729, 0.305389, 0.523927, -0.163110, -0.848681, -0.274773, 0.212539, 0.116048, 0.018910, 0.062617, -0.204529, -0.652300, -0.151908, 0.424603, 0.396009, -0.815610, -8.141185, -0.001760, 0.410694, 0.203198, 0.210225, 0.075259, -0.823251, -7.413478, 0.236198, 0.461163, 0.097661, -0.195731, -0.171487, -0.213028, -0.314199, -0.104885, 0.231548, 0.150968, -0.391155, -0.539451, -0.036795, 0.205979, 0.160488, 0.343504, 0.054654, -0.521421, -0.349773, 0.181667, 0.419391, 0.062764, -0.562832, -0.650784, -0.284389, 0.296294, 0.432750, 0.366612, -0.298638, -8.079647, -0.266994, 0.446128, 0.301358, 0.205454, -0.052991, -0.542033, -0.418778, -0.278105, 0.057781, 0.185094, 0.342662, 0.121661, -0.679752, -0.357066, 0.212792, 0.388493, 0.043715, -0.353904, -0.409158, -0.141908, 0.093664, 0.352680, 0.165039, -0.360033, -0.896414, -0.181987, 0.357647, 0.174794, -0.022527, 0.031523, -0.382839, -0.430760, 0.146253, 0.496922, 0.276205, -0.437827, -0.610581, -0.037652, 0.305426, 0.060810, 0.507113, 0.250100, -0.733181, -6.728585, -0.036577, 0.339944, 0.240319, 0.046284, -0.112603, -0.332926, -0.332874, 0.086505, 0.344557, -0.189649, -6.938845, -0.678763, 0.331897, 0.545744, 0.167551, 0.143268, -0.169357, -0.769840, -0.515169, 0.246450, 0.493513, 0.095267, -0.098511, -0.103700, -0.257933, -0.167829, 0.215790, 0.360835, -0.146906, -0.928423, -0.453037, 0.424150, 0.359113, 0.142783, 0.250722, -0.283060, -0.708692, -0.389479, 0.343845, 0.335515], 
				[0.590190, 0.276107, -0.575058, -0.612954, 0.166014, 0.589335, -0.040955, -0.929212, -0.331577, 0.508348, 0.424320, -0.443202, -8.092505, -0.090041, 0.656698, 0.110577, -0.379018, -0.723150, -0.053920, 0.417596, -0.053009, -0.295690, -0.317497, 0.065544, 0.360370, -0.048447, -0.324593, -0.131914, -0.047449, 0.140301, -0.027671, 0.107354, -0.121855, -0.605417, -0.261345, 0.137876, 0.325209, -0.136313, -0.478319, -0.044484, 0.154045, -0.002461, -0.220393, -0.442967, 0.145920, 0.281823, 0.231380, -0.303078, -0.319250, -0.084670, 0.083906, 0.245427, -0.008614, -0.379046, -0.261471, 0.256629, 0.268700, 0.021551, -0.525301, -0.381219, 0.383006, 0.504530, -0.015347, -8.227382, -0.313985, 0.286054, 0.438397, -0.305495, -8.406259, -0.000601, 0.517382, 0.021872, -0.425367, -0.540274, 0.154703, 0.404570, -0.056128, -0.238855, -0.147193, 0.102279, -0.053601, -0.161530, -0.111758, 0.117959, -0.052101, -0.078935, -0.122902, 0.229800, -0.067141, -0.213783, -0.196221, 0.274110, 0.418660, -0.333106, -8.088637, -0.355898, 0.440315, 0.239138, -0.352101, -0.867142, 0.259215, 0.475517, -0.025651, -0.711509, -0.532338, 0.153955, 0.364342, 0.089901, -0.574684, -0.278989, 0.152081, 0.267967, 0.043232, -0.237543, -0.453969, -0.259050, 0.352925, 0.343795, -0.023239, -0.519523, -0.238730, 0.354708, 0.380331, -0.489183, -0.673234, 0.038695, 0.458022, 0.160500, -0.537374, -0.446068, 0.195525, 0.357547, -0.084220, -0.394400, -0.332447, -0.139179, 0.054459, -0.007186, 0.247701, 0.230335, -0.362468, -0.332701, -0.088537, 0.305523, 0.044997, -0.508016, -0.160936, 0.343708, 0.457770, -0.185154, -0.747369, -0.123289, 0.409692, 0.439267, -0.571073, -8.146635, -0.227704, 0.596377, 0.355356, -0.655133, -0.713234, 0.146454, 0.630625, 0.058411, -0.644076, -0.380805, 0.258444, 0.438922, -0.095660, -0.333385, -0.451205, 0.013281, 0.182107], 
				[-0.233300, -0.168180, 0.078572, 0.464122, -0.026068, -0.340011, -0.038227, 0.049796, 0.066803, -0.711948, -0.274121, 0.155538, 0.203938, 0.095870, 0.699139, -0.226932, -0.318362, -0.467981, -0.555213, 0.261359, 0.435739, -0.022808, -0.137267, 0.132319, -0.053142, 0.060939, -0.465925, -0.119790, 0.439527, 0.107704, 0.119473, -0.242229, 0.070084, 0.034640, -0.228111, -0.426091, 0.584688, 0.184688, -0.419060, -7.697287, -0.337176, -0.159808, 0.262279, 0.192034, -0.056495, 0.253425, 0.075535, 0.057366, -0.371722, -0.307882, -0.287684, 0.059449, 0.325406, 0.247457, 0.025257, -0.309525, 0.000901, -0.041985, -0.216617, -0.007201, 0.216219, -0.270651, 0.086723, 0.334761, -0.077001, -0.112834, 0.105824, -0.075820, 0.389832, 0.061851, -6.831728, -0.270838, 0.157432, 0.010754, -0.417416, -0.093275, 0.371538, 0.244020, -0.744925, -0.207064, -0.145319, -0.059705, -0.100417, -0.155936, -0.112102, 0.275354, 0.128357, -0.295457, -0.208178, 0.174274, 0.007424, -0.172185, -0.079348, -0.253966, 0.179542, 0.111619, -0.393320, -0.106392, 0.424497, 0.036237, -0.161778, -0.051830, -0.405804, -0.406833, -8.089537, -0.071396, 0.425216, -0.074093, 0.072566, -0.117338, -0.154558, 0.204756, 0.052940, -7.866966, -0.054211, 0.476567, 0.252548, 0.220584, -0.032625, -7.772452, -0.034447, -0.065709, 0.028918, 0.207796, 0.020063, -0.116224, -0.208574, -0.133904, 0.083037, 0.290268, 0.220868, -0.005765, -0.101868, -0.001260, -0.057887, -0.482083, -7.658508, 0.156749, 0.391928, 0.150763, 0.045739, 0.235354, -0.259177, -0.746535, -0.161904, 0.048904, 0.393094, 0.121141, -0.629192, -0.101043, 0.429269, 0.192900, -0.339411, -0.171392, 0.067286, 0.351093, -0.470678, -0.483047, -0.159934, 0.334311, 0.325646, 0.252921, -0.383486, 0.325722, 0.166620, -7.415132, -0.556957, -0.029363, 0.197989, 0.186501, 0.154103, -0.118692, 0.026995], 
				[-0.078747, 0.027488, -0.127488, -0.323487, -0.273826, 0.031099, 0.476207, 0.315638, -8.101447, -0.282596, -8.889930, -0.070714, 0.248550, 0.010198, -0.162387, 0.145646, 0.340077, -0.355613, -0.628764, -0.233052, -0.160868, 0.295696, 0.152987, 0.028479, -0.308863, -0.013117, 0.036980, -0.309050, -0.191046, -0.292113, 0.175001, 0.339165, 0.146049, -0.368989, -0.052412, 0.027507, 0.027311, 0.125555, 0.057227, -0.364728, 0.217445, -0.372114, 0.088470, -0.021421, -0.035578, -0.356866, -0.227154, 0.079313, 0.062539, -0.438934, -0.136597, -0.135821, 0.329684, 0.702942, -0.200170, 0.147889, -0.093308, -0.160650, 0.075675, -0.177550, -0.535659, -0.008870, 0.388708, 0.470619, -0.381547, -0.266576, -0.621590, -0.066941, 0.373631, -0.008049, -0.103705, -0.019004, 0.093485, 0.016497, -0.196009, -0.491451, -0.167948, 0.206297, 0.044382, -0.316770, -0.185837, 0.402969, 0.040726, -0.131569, 0.011181, -0.325744, 0.051685, -0.002698, 0.034164, -0.018672, -0.100554, -0.112225, -0.116452, 0.073282, -0.089928, -0.370117, 0.209033, -0.030689, 0.059190, 0.188300, 0.079125, -0.075948, -0.203854, -0.094134, 0.015724, 0.100444, -0.204550, -0.169498, 0.019452, 0.012995, -0.193825, 0.217036, -0.126951, -0.128549, -0.006806, 0.149537, -0.356768, 0.245882, 0.310315, -0.057332, -0.060815, -0.121053, -0.324031, -0.117314, 0.039807, -0.110877, -7.661713, 0.090365, 0.377200, 0.501745, 0.176293, -0.466562, -0.356087, -0.306985, 0.171088, 0.013733, 0.035420, 0.338463, 0.061691, 0.126202, -0.188118, -8.160925, -0.604866, -0.192272, 0.438566, 0.240647, 0.245651, 0.149962, -0.133202, 0.028111, -0.086794, -0.029621, 0.125663, -0.307252, 0.277879, 0.192781, -0.007807, -0.720365, -0.336165, -0.102317, 0.094619, 0.292670, -0.151305, 0.021428, -0.207681, -0.120027, 0.237010, -0.103199, 0.078913, 0.487872, 0.389933, -0.113642, -6.469766], 
				[-1.405683, -1.205707, 0.625201, -1.294580, -1.374616, -1.439843, -1.274135, 0.071796, -1.335122, -1.197292, -0.281617, -0.027032, -0.333519, -1.407669, -1.205034, -0.981480, -0.648234, 0.164882, -1.190491, -1.197186, -1.032772, -1.396178, -1.131130, -0.941499, -1.177708, -1.201573, -1.225343, -0.636343, -0.240312, -0.138364, -0.743936, -0.833634, -1.097533, -0.992717, -1.112880, -1.141034, -0.852224, -0.858443, -0.601272, -1.150266, -1.226703, -1.120128, -1.153136, -1.155043, -0.986538, -1.137906, -1.077356, -1.096179, -1.085801, -0.558293, -1.204861, -1.103979, -0.823479, -0.876072, -1.061714, -0.842821, -0.793097, -1.036214, -1.126519, -1.096379, -0.780199, -0.953490, -0.961138, -1.016346, -0.940838, -0.787688, -0.713326, -0.797867, -0.752812, -0.985782, -0.870902, -1.035856, -0.979019, -0.988781, -1.062689, -1.039677, -0.875118, -0.591138, -0.793972, -0.778686, -0.783689, -0.538451, -0.548660, -0.867691, -0.753712, -0.869936, -0.819645, -0.928328, -0.833262, -0.793520, -0.742679, -0.739001, -1.001228, -0.958166, -0.920299, -0.691628, -0.403865, -0.434790, -0.556774, -0.706205, -0.699808, -0.668581, -0.800472, -0.764170, -0.335780, -0.762343, -0.660817, -0.944313, -0.767907, -0.837226, -0.578231, -0.380116, -0.620143, -0.844607, -0.869700, -0.771492, -0.576101, -0.290836, -0.470639, -0.624468, -0.517607, -0.717443, -0.675945, -0.580374, -0.594684, -0.349482, -0.726564, -0.606272, -0.487665, -0.658230, -0.331478, -0.989302, -0.854939, -0.741163, -0.768528, -0.483571, -0.722462, -0.592481, -0.842377, -0.997693, -0.667419, -0.439351, -0.526119, -0.657623, -0.424783, -0.720935, -0.660873, -0.621879, -0.356082, -0.506421, -0.658883, -0.535008, -0.398821, -0.620234, -0.629496, -0.552476, -0.546952, -0.477851, -0.626418, -0.723132, -0.489521, -0.652215, -0.713380, -0.473385, -0.870525, -0.525118, -0.596482, -0.728674, -0.518867, -0.575362, -0.408206, -0.599548, -0.531322], 
				[0.258556, -7.459618, -0.674446, 0.344124, 0.390939, -0.832606, -0.160945, 0.403899, 0.074015, -0.887478, -0.478981, 0.266468, 0.149509, -0.742717, -0.116606, 0.423621, -0.009256, -0.730606, 0.049999, 0.264162, 0.198124, -0.651456, 0.067446, 0.304649, 0.148975, -0.276215, -0.235658, 0.127351, 0.021544, -0.277477, -0.048568, -0.075974, -0.093248, -0.241258, 0.003354, 0.023863, 0.055561, -0.174711, -0.115510, -0.091586, 0.246615, -0.195382, -0.279287, -0.175083, 0.101525, 0.055114, -0.385894, -0.000134, 0.219756, -0.160397, -0.339335, -0.015644, 0.165595, -0.147744, -0.454284, 0.228551, 0.339027, -0.028611, -7.311760, 0.004843, 0.567728, -0.157094, -0.644265, 0.159413, 0.337102, -0.434440, -0.665297, 0.363143, 0.432441, -0.368539, -0.409490, 0.368492, 0.222716, -0.550902, -8.127575, 0.307747, 0.373586, -0.278511, -0.589567, 0.263181, 0.112116, -0.584076, -0.430899, 0.415705, 0.386119, -0.345764, -0.602977, 0.390447, 0.241399, -0.507770, -0.359334, 0.095596, 0.048329, -0.314974, -0.253035, 0.382294, 0.026153, -0.410849, -0.287285, 0.223479, 0.183381, -0.281317, -0.159957, 0.012271, -0.044773, -0.049135, -0.370727, -0.016982, 0.055534, 0.127054, -0.052056, -0.201753, -0.064914, -0.040727, -0.102526, 0.051569, 0.067350, 0.148746, -0.238753, -0.191896, 0.223713, 0.210876, -0.405095, -0.168332, 0.194325, 0.153070, -0.549276, -0.020147, 0.392620, 0.221669, -0.235893, -0.047452, 0.238755, -0.005867, -7.784505, -0.260429, 0.562853, -0.026726, -0.625006, 0.005570, 0.442689, -0.122474, -7.312129, -0.132437, 0.419065, -0.105559, -0.563179, 0.143380, 0.552691, -0.042874, -0.670293, 0.196106, 0.404886, -0.235172, -7.519514, -0.075451, 0.489341, 0.019386, -0.408096, 0.194076, 0.246752, -0.072578, -0.633063, -0.105816, 0.037510, 0.079976, -0.114270, 0.547716, 0.179956, -0.227514, -0.480010, -0.173627, -0.085530], 
				[-0.049470, -0.134833, -0.159507, -0.062205, -0.098064, -0.303369, -0.509727, -0.214338, 0.287737, 0.526214, 0.689501, -0.073237, -7.826042, -8.035548, -0.244783, 0.372910, 0.293900, 0.189392, -0.137501, -0.000939, -0.053003, -0.528024, -0.343944, -0.176827, -0.230440, 0.101118, 0.320374, 0.430199, 0.091280, -1.067051, -8.013528, -0.282493, 0.441721, 0.343848, 0.323280, 0.024861, -0.299482, -0.541353, -0.452748, -0.193657, -0.008947, 0.075707, 0.144971, 0.315516, 0.015940, -0.091952, -0.345338, -0.795700, -0.290097, -0.106017, 0.510258, 0.369798, 0.029756, -0.277223, -0.409000, -0.277195, -0.023836, 0.092201, 0.183089, -0.095340, 0.056728, -0.179071, -0.061892, -0.092203, -0.245082, -0.368333, 0.027492, 0.479897, 0.338008, -0.098583, -0.346917, -0.147944, -0.177853, -0.284403, 0.072505, 0.338454, -0.001332, -0.381141, -0.412697, -0.048729, 0.235022, 0.016112, -0.151986, -0.246637, -0.144500, -0.229396, -0.092237, 0.167109, 0.165677, -0.079795, -0.138925, -0.130010, 0.083730, 0.039486, -0.365610, -0.133929, 0.167359, 0.205199, -0.040409, 0.012052, -0.111198, -0.164638, -0.343932, -0.034300, 0.171710, 0.487904, 0.262000, -0.268046, -0.935199, -0.601484, 0.157052, 0.448688, 0.142017, 0.188878, 0.034164, -0.032166, -0.249734, -0.161069, -0.206100, -0.204670, -0.013323, 0.244947, 0.434984, 0.262248, -0.307885, -0.940270, -7.216068, 0.065822, 0.537535, 0.663975, -0.010826, -0.176489, -0.416052, -0.303352, -0.143859, 0.030658, 0.120827, 0.173073, 0.137525, 0.356908, 0.192853, -0.609226, -7.657008, -0.858325, -0.070024, 0.557988, 0.594436, 0.211096, -0.276799, -0.571480, -0.756022, -0.421347, 0.109410, 0.492939, 0.359042, -0.107554, -0.184346, -0.070942, -0.183829, -0.553947, -0.624577, -0.131003, 0.531190, 0.588251, 0.057712, -0.272220, -0.429993, -0.358293, -0.080033, 0.174898, 0.331983, 0.065972, 0.070705], 
				[-0.394117, 0.618715, 0.570796, -0.427582, -0.985138, -0.228829, 0.308044, 0.417166, -0.281104, -0.551884, -0.150523, 0.326102, 0.613041, -0.465874, -7.362664, -0.216215, 0.622269, 0.432789, -0.418216, -0.708162, -0.009832, 0.322827, 0.018676, -0.504433, -0.459911, 0.172524, 0.411071, -0.073242, -0.691990, -0.510386, 0.086133, 0.213915, 0.004634, -0.492007, -0.315594, 0.284328, 0.391069, -0.109733, -0.513094, -0.051170, 0.387995, 0.222822, -0.167816, -0.489512, -0.248830, -0.139726, 0.087190, 0.069409, -0.237263, -0.207195, 0.025766, 0.115786, -0.167383, -0.414869, 0.116459, 0.401831, 0.142786, -0.135749, -0.213747, -0.066879, 0.025210, 0.091220, -0.251846, -0.151807, 0.108122, 0.054366, -0.237519, -0.091785, 0.002409, 0.192345, 0.138710, -0.077709, -0.305294, -0.253161, -0.057131, -0.139393, -0.064398, 0.041418, 0.078275, 0.061237, -0.093115, -0.102058, -0.011033, -0.054936, 0.071986, 0.015799, -0.177889, 0.089090, -0.198816, -6.989972, -0.258403, 0.147297, 0.178020, 0.087550, -0.115584, -0.252889, -0.048948, 0.086622, -0.016876, -0.417187, -0.048380, 0.427608, 0.086322, -0.554352, -8.115774, 0.076946, 0.527549, 0.368228, -0.420628, -0.547289, -0.092164, 0.307640, 0.101947, -0.090030, -0.068051, 0.267923, 0.386436, -0.272066, -7.540527, -0.436854, 0.354317, 0.512395, 0.001148, -0.483648, -0.390119, 0.114170, 0.297828, -0.139955, -0.479130, -0.030498, 0.416932, 0.107996, -0.686460, -0.816957, -0.140391, 0.505996, 0.533546, -0.281940, -7.961341, -0.129210, 0.422163, 0.121825, -0.442294, -0.157168, 0.386357, 0.475695, -0.340540, -0.770336, -0.680361, 0.026518, 0.615202, 0.159414, -0.264874, -0.390772, 0.224021, 0.303962, -0.080449, -0.521058, -0.249876, 0.456798, 0.344633, -0.269903, -8.600325, -0.310891, 0.375025, 0.402512, -0.178673, -0.417443, -0.167109, 0.210790, 0.085248, -0.186624, -0.175478], 
				[0.494716, 0.119598, -0.483093, -0.583670, -0.027060, 0.282736, 0.367856, -0.219994, -0.874676, -0.348908, 0.412845, 0.459479, -0.441955, -0.887491, -0.212745, 0.542373, 0.519965, -0.349905, -8.941175, -0.717129, 0.359717, 0.668684, 0.015079, -0.734258, -0.681126, 0.248934, 0.357433, 0.045792, -0.677326, -0.326261, 0.063365, 0.232232, -0.093171, -0.115788, -0.223595, 0.161909, -0.023802, -0.122242, -0.049672, -0.134133, -0.231651, -0.172637, 0.138802, 0.066348, -0.239532, -0.173854, 0.036517, -0.007845, 0.126074, 0.058625, -0.196341, -0.299894, -0.176874, 0.435527, 0.311134, -0.289204, -0.566750, -0.056333, 0.444486, -0.003856, -0.532890, -0.421855, 0.164528, 0.402202, 0.226082, -0.458706, -0.378262, 0.019186, 0.155952, 0.103860, 0.098730, -0.383847, -0.086341, 0.182130, 0.158575, -0.035224, -0.304769, 0.122098, 0.129657, 0.032090, -0.117319, -0.111914, 0.028955, 0.100203, -0.112230, -0.178258, -0.089613, 0.078696, 0.165421, -0.055385, -0.107849, -0.186928, 0.180584, 0.272053, -0.188368, -0.012404, -0.156451, -0.266960, -0.223063, 0.067145, 0.185866, -0.041867, -0.564394, -0.332262, 0.257334, 0.274829, -0.087413, -8.348536, -0.290299, 0.373194, 0.343743, 0.061846, -0.445262, -0.255711, 0.219491, 0.333733, 0.053810, -0.268533, -7.819771, -0.023566, 0.384990, 0.063014, -0.359318, -0.615547, 0.126084, 0.401028, -0.053213, -0.351715, -0.368842, 0.045010, 0.273257, 0.144407, -0.173096, -0.101893, -0.010237, -0.122509, 0.065076, -0.132969, -0.437874, -0.177912, 0.084665, 0.372798, 0.047452, -0.272355, -0.463183, -0.389249, 0.194812, 0.380048, 0.304528, -0.380255, -0.889162, -0.137244, 0.447213, 0.318008, -0.472912, -0.606448, 0.196561, 0.428059, 0.335627, -0.458037, -7.332296, -0.228459, 0.742162, 1.008833, -0.246693, -8.141782, -0.357267, 0.531157, 0.423227, -0.254022, -0.765013, -0.122450, 0.212177], 
				[0.067940, -0.089183, -0.163977, 0.037829, 0.067634, -0.060558, 0.245128, 0.225173, 0.064523, -8.740702, -0.787652, 0.132396, 0.045396, -0.110992, -0.182751, 0.010145, 0.229132, -0.046421, -0.302826, 0.132910, 0.088176, -0.147110, -0.545941, 0.083412, -0.209505, 0.018579, 0.130492, 0.341471, 0.088167, -0.460641, -0.618420, 0.064080, 0.001838, 0.125983, 0.484629, -0.175802, -0.659610, -0.310194, 0.374110, -0.046054, -0.458418, -0.199332, 0.086249, 0.126123, 0.124651, 0.234423, 0.071894, -0.279412, -0.081932, -0.214977, -0.313374, -0.357938, 0.265671, 0.255425, 0.126910, -0.335829, -0.468470, 0.057544, 0.293236, 0.411376, 0.027781, -0.102297, -0.375643, -0.150677, -0.311418, -0.051882, 0.100517, 0.093661, 0.078679, -0.010504, -0.035406, -0.305827, -0.342761, -0.066598, 0.574340, 0.151413, -0.401157, -8.043100, 0.089551, 0.303955, 0.259648, -0.083702, 0.065988, -0.336016, -0.219440, 0.050785, 0.066230, 0.085487, -0.043652, 0.289918, -0.151654, -0.414888, -7.875534, 0.073910, 0.260056, 0.083934, -0.144975, -0.274446, -0.341891, 0.071487, 0.329621, 0.338731, -0.218031, -8.458584, -0.195880, 0.499032, 0.439570, -0.061866, -0.069725, 0.133594, 0.152444, -0.670006, -0.618719, 0.009516, 0.316683, 0.648655, -0.016018, -0.276242, -0.506564, -0.018017, -0.044082, -0.062151, -0.006149, 0.036990, 0.013320, 0.432137, 0.338207, 0.001059, -0.212467, 0.079935, 0.153030, -0.365378, -0.523363, -0.296985, 0.313631, 0.238501, 0.220286, -0.085067, -0.275461, -0.173863, 0.120438, 0.230384, 0.058039, -0.276660, -0.135425, -0.210263, 0.054301, 0.019671, 0.176869, 0.317436, 0.216465, -0.192256, -0.136668, -0.124822, -0.040049, 0.307354, 0.162955, -0.205380, -7.956324, -0.225852, 0.168217, 0.531048, -0.004120, -0.057043, 0.107015, -0.338800, -0.554446, 0.003344, 0.261022, 0.362417, 0.014934, -0.615341, -6.306020], 
				[0.252689, 0.444933, 0.062316, -0.070574, 0.281907, 0.168991, -0.375900, -0.644970, -0.686861, -0.165535, 0.387081, 0.621900, 0.208153, -0.000528, -0.057826, -0.370144, -0.638884, -0.634689, -0.296844, 0.272777, 0.277556, 0.102412, 0.153875, 0.346296, 0.006228, -0.517218, -0.763983, -0.684058, -0.057806, 0.367702, 0.263567, 0.177707, 0.242518, 0.048101, -0.305768, -0.669899, -8.599101, -0.149733, 0.185025, 0.110510, 0.051110, 0.336814, 0.444823, 0.042238, -0.765076, -0.835285, -0.271956, 0.088009, -0.111264, 0.110109, 0.309409, 0.354877, 0.129363, -0.091777, -0.611812, -0.526762, -0.551490, -0.150814, 0.056591, 0.492801, 0.453523, 0.352462, -0.138717, -8.233068, -0.437196, -0.232649, -0.355150, 0.058196, 0.202962, 0.461644, 0.353905, 0.216072, -0.077099, -0.503332, -0.434365, -0.734673, -0.287907, 0.159174, 0.311210, 0.158517, 0.102054, -0.068294, -0.211598, -0.167919, -0.607324, -0.654378, 0.101034, 0.206690, 0.185744, 0.349422, 0.248350, 0.091047, -0.301534, -8.710849, -0.896826, -0.016966, 0.209400, 0.244287, 0.016761, -0.130190, 0.249603, 0.252473, -0.404141, -0.650638, -0.570011, -0.073838, -0.081950, 0.330983, 0.295789, 0.376790, 0.322349, -0.377859, -8.322058, -0.337222, -0.104607, 0.069182, 0.088347, 0.037299, 0.256314, 0.374617, -0.024078, -0.265992, -0.516816, -0.273972, -0.241953, 0.017202, 0.315653, 0.558899, 0.364032, 0.072457, -0.312099, -0.407117, -0.279052, -0.405233, -0.208194, -0.137027, 0.242877, 0.543181, 0.252165, -0.116825, -0.368205, -0.284774, -0.496897, -0.229096, 0.041754, 0.266412, 0.318587, 0.208443, 0.107346, -0.045555, -0.122340, -0.366970, -0.470080, -0.401871, -0.024465, 0.375279, 0.499554, 0.274993, -0.012534, -0.100655, -0.415217, -0.311678, -0.124379, -0.169412, 0.188069, 0.372361, 0.117437, 0.273048, 0.180321, -0.247513, -0.560424, -8.813001, -0.396638], 
				[-0.325281, -1.056358, -0.573396, 0.389808, 0.437458, -0.059291, -0.660216, -0.227378, -0.047818, 0.177650, -0.337861, -0.305488, 0.304122, 0.420102, -0.060051, -0.960659, -0.720170, 0.199494, 0.689453, 0.180148, -0.368957, -0.526218, -0.149476, 0.048712, -0.022109, 0.034078, 0.289723, 0.416227, -0.034780, -0.471431, -0.553630, -0.303435, 0.248909, 0.222367, -0.112046, -0.132699, -0.346480, -0.196970, -0.251514, 0.162516, 0.210942, 0.051318, -0.301279, -0.326828, -0.029293, 0.207044, 0.354122, 0.059639, -0.109868, 0.063511, -0.067808, -0.381192, -0.336440, 0.293196, 0.551303, 0.120669, -0.505993, -0.758171, -0.110163, 0.342846, 0.308178, 0.032640, -0.357975, 0.087995, 0.058684, -0.486616, -0.416396, 0.161400, 0.523539, 0.169494, -0.474743, -0.525508, 0.281642, 0.377367, 0.042350, -0.652331, -0.326816, 0.212481, 0.426070, 0.074806, -0.456190, -0.240961, 0.250573, 0.135514, -0.282636, -0.589706, -0.170514, 0.598458, 0.490973, -0.269069, -7.795370, -0.424345, 0.230529, 0.297942, -0.175794, -0.416986, -0.036068, 0.346726, 0.169400, -0.472050, -0.379595, 0.028040, 0.253020, 0.199882, -0.215927, -0.195721, 0.031315, 0.002552, -0.112906, -0.190153, 0.165342, 0.250681, -0.060106, -0.286227, -0.271801, -0.082540, 0.096663, 0.116987, 0.175436, 0.057922, -0.343971, -0.355933, -0.173000, 0.089626, 0.014194, 0.251875, -0.072449, -0.336463, -0.022631, 0.107384, -0.141973, -0.026692, 0.049459, 0.089049, 0.134048, -0.407574, -7.628532, 0.084080, 0.561583, 0.291103, -0.356934, -7.611658, -0.308848, 0.156020, 0.256985, -0.048369, -0.004349, 0.215348, 0.017231, -7.679856, -0.698905, -0.112952, 0.505861, 0.590753, -0.129069, -0.779333, -0.381203, 0.024421, 0.328324, 0.191485, -0.016557, 0.285761, 0.154719, -0.319352, -8.718680, -0.290685, 0.534878, 0.613427, -0.262661, -6.918206, -0.658067, 0.043102, 0.277381], 
				[-0.142302, -0.087072, -0.007454, -0.121858, -0.250657, 0.130692, 0.348241, 0.277796, -0.571641, -8.847441, -0.328327, 0.425898, 0.246729, -0.401338, -0.208049, 0.305627, 0.549944, -0.149483, -8.972368, -0.474855, 0.401262, 0.197241, -0.031828, -0.028944, 0.122280, 0.007599, -0.324370, -0.414426, -0.096050, 0.240371, -0.023680, -0.128389, 0.006634, 0.203273, 0.115811, -0.119422, -0.127275, 0.169312, 0.155941, -0.522655, -0.356529, 0.003458, 0.298719, 0.197777, -0.068663, -0.191393, 0.046142, 0.104352, -0.739940, -0.759049, -0.017951, 0.412385, 0.221517, 0.024503, -0.054243, -0.061464, -0.106592, -0.141418, -0.460030, -0.009107, 0.240625, -0.058015, -0.054253, -0.079811, 0.266574, -0.026937, -0.016377, -0.275820, -0.108071, -0.292160, 0.172629, -0.028138, 0.192967, 0.016362, -0.027759, 0.086336, 0.038395, 0.074189, -0.393161, -0.405426, 0.045475, 0.457563, 0.006406, 0.074030, -0.003927, -0.102690, 0.071773, 0.045178, -0.330796, -0.565060, 0.023812, 0.140149, -0.068872, -0.196355, 0.080371, -0.047286, 0.250589, -0.006264, -0.376765, -0.185472, 0.025722, -0.154025, -0.002096, 0.090798, 0.040913, 0.190031, 0.117766, -0.157072, -0.313470, -0.091135, 0.118695, 0.043885, 0.059429, -0.087945, -0.060219, -0.260708, -0.050870, 0.423812, 0.183366, -0.379348, -0.142000, -0.132926, -0.041309, 0.074179, 0.077141, 0.053026, 0.251523, 0.360923, -0.288773, -0.744955, -0.099727, 0.114382, -0.002017, -0.091622, 0.058486, 0.246823, 0.459626, -0.207152, -7.795412, -0.335478, 0.429438, 0.448546, 0.002479, -0.214884, 0.059788, 0.174962, -0.151554, -0.298334, -0.058123, 0.160668, 0.030074, -0.142679, -0.329689, 0.013951, 0.256452, -0.026100, -0.151937, 0.071334, 0.122569, -0.725192, -0.713540, 0.121387, 0.348023, 0.248486, -0.433200, 0.020651, 0.794227, 0.122417, -7.526918, -7.460009, 0.137713, 0.595067, 0.286388], 
				[-0.662019, 0.106369, 0.453127, -0.208215, -0.373177, 0.440270, 0.118554, -0.716349, -0.327205, 0.425815, 0.243508, -0.145400, 0.258698, -0.065643, -0.394926, -0.773097, 0.154138, 0.141518, -0.297228, 0.009523, 0.077218, -0.144074, -0.164323, 0.094544, 0.289525, -0.166944, -0.396046, 0.191942, -0.086059, -0.617582, -0.373095, 0.178000, 0.165848, -0.465637, 0.053313, 0.212770, -0.468624, -0.632335, 0.227464, 0.224865, -0.063192, -0.023892, 0.196471, -0.017322, -0.788433, 0.026602, 0.135866, -0.119124, -0.336597, 0.262025, 0.100709, -0.472253, -0.231444, 0.120251, 0.028869, -0.408219, 0.174339, 0.375841, -0.172036, -8.246958, -0.025868, 0.430062, -0.320853, -0.213060, 0.305237, 0.236062, -0.560805, -0.218418, 0.024900, -0.035011, -0.451561, 0.215096, 0.475712, -0.173387, -0.451037, 0.117831, -0.018701, -0.645533, 0.096270, 0.328499, 0.178511, -0.413312, 0.017473, 0.163073, -0.221145, -0.272691, 0.177060, 0.364321, -0.270110, -0.073892, -0.005377, 0.014712, -0.384005, 0.086608, 0.166932, -0.151584, -0.160264, 0.246236, 0.127613, -0.362896, -0.139621, 0.159567, -0.153512, -0.154687, 0.204399, 0.058821, -0.472523, -0.195888, 0.146230, 0.063858, -0.580723, 0.066616, 0.285521, 0.008761, -0.395878, 0.296223, 0.180481, -0.431264, -0.228697, 0.367959, 0.071860, -0.603767, -0.078180, 0.240989, -0.301375, -0.338778, 0.305277, 0.155463, -0.481051, -0.104767, 0.299732, -0.075142, -0.427494, 0.179442, 0.559090, -0.255795, -7.976038, 0.273712, 0.267383, -9.140325, -0.244254, 0.545188, 0.249232, -0.309507, -0.103351, 0.332206, -0.325411, -0.629710, 0.190941, 0.739976, -0.030822, -0.507161, 0.021496, -0.042156, -0.727011, -0.180751, 0.506498, 0.216359, -0.148532, 0.137915, 0.314684, -0.673716, -9.062697, 0.284896, 0.486870, -0.137689, -0.029863, 0.366296, -0.279088, -7.371609, -0.245440, 0.207210, 0.152117], 
				[-1.588293, -1.256799, -0.600171, 0.560870, -1.431179, -0.260427, -1.538280, -1.475351, -1.239576, -1.346986, -1.422862, -1.229627, -1.256082, 0.185196, -0.383834, -1.189858, -1.189390, -1.115179, -1.432376, -1.358629, -0.455324, -1.257418, -1.205600, -0.965943, -1.293247, -1.210564, -1.275270, 0.094046, -1.241822, -0.660224, -1.267113, -1.213461, -1.062526, -1.187293, -0.719229, -0.820620, -0.680363, -1.002029, -1.028014, -1.051792, -0.836871, -1.189540, -0.733195, -1.183072, -1.116231, -0.593323, -0.356999, -0.808682, -1.002757, -0.605393, -1.100851, -0.997931, -1.059975, -0.769690, -0.642523, -0.783162, -0.488182, -0.725443, -0.772640, -1.026170, -0.778480, -1.117616, -0.974119, -1.044509, -0.612536, -1.068842, -1.029283, -0.896566, -0.431244, -0.811312, -1.009834, -0.869279, -0.848684, -1.027458, -0.872122, -0.969012, -0.956268, -0.528449, -0.538818, -0.838549, -0.661388, -0.442247, -0.688102, -0.727373, -0.849209, -0.707496, -0.804176, -0.713804, -0.699290, -0.518088, -0.867676, -0.741119, -0.815753, -0.702361, -0.471496, -0.498944, -0.296022, -0.787784, -0.754330, -0.644661, -0.630275, -0.143838, -0.781795, -0.778361, -0.778046, -0.576619, -0.500776, -0.906058, -0.600899, -0.602477, -0.668865, -0.842747, -0.475376, -0.789772, -0.735893, -0.168353, -0.753760, -0.605103, -0.666702, -0.534263, -0.594070, -0.496686, -0.688391, -0.795345, -0.509133, -0.441285, -0.553107, -0.505501, -0.755948, -0.858330, -0.792427, -0.802683, -0.387801, -0.549436, -0.632691, -0.076567, -0.253426, -0.610117, -0.310639, -0.740635, -0.780435, -0.638140, -0.562205, -0.457146, -0.405175, -0.549943, -0.562778, -0.612702, -0.624511, -0.318155, -0.476738, -0.443855, -0.632388, -0.570755, -0.425257, -0.635092, -0.030681, -0.490724, -0.689189, -0.710886, -0.572762, -0.548624, -0.208145, -0.556004, -0.553074, -0.389366, -0.420534, -0.654479, -0.572230, -0.591316, -0.474080, -0.859539, -0.432294], 
				[-1.874785, -1.463717, -1.726096, -1.760628, -1.763133, -1.781611, -1.772688, -1.944341, -0.777695, -1.670883, -1.581239, -1.791783, -1.638433, -1.385980, -1.559566, -1.444009, -1.470867, -1.592850, -1.590003, -0.875199, -1.255434, -1.596624, -1.509612, -1.352760, -1.364508, -1.334022, -1.350850, -1.236028, -1.357407, -1.379182, -1.411938, -1.473664, -1.409687, -1.283580, -0.856649, -0.836957, -1.253137, -1.217639, -1.010910, -0.930143, -1.272701, -1.074482, -1.208978, -1.203168, -1.284740, -1.237171, -1.237573, -1.272172, -1.258473, -0.923637, -1.233994, -1.041226, -1.222460, -1.130474, -0.927533, -1.189685, -1.035134, -0.849806, -1.028748, -1.174453, -0.784543, -0.994849, -1.059195, -0.931211, -0.995708, -1.077268, -1.109889, -1.104986, -1.047592, -1.173814, -1.088016, -0.878042, -1.074326, -1.010675, -0.823336, -1.022853, -1.011322, -1.044300, -0.751201, -0.753419, -0.860812, -1.104621, -0.911206, -0.868181, -0.806938, -0.807948, -1.011147, -0.866140, -0.921732, -0.466511, -0.826074, -0.920480, -0.779304, -0.773702, -0.676033, -0.827778, -0.892529, -0.770142, -0.798369, -0.890512, -0.910908, -0.820895, -0.942448, -0.790946, -0.544375, -0.816075, -0.727312, -1.163244, -0.895152, -0.862813, -0.577191, -0.727572, -0.784438, -0.745472, -0.787212, -0.672973, -0.923819, -0.607126, -0.652712, -0.732830, -0.712835, -0.816957, -0.739889, -0.817284, -0.780582, -0.734715, -0.546272, -0.603137, -0.777997, -0.841811, -0.666385, -0.378727, -0.713046, -0.937530, -0.697240, -0.782949, -0.824302, -0.633087, -0.723604, -0.631314, -0.828713, -0.845958, -0.736599, -0.696452, -0.856469, -0.566061, -0.689090, -0.629179, -0.493293, -0.741554, -0.689335, -0.724044, -0.581192, -0.715574, -0.698645, -0.640067, -0.796901, -0.636951, -0.682065, -0.691487, -0.595052, -0.753657, -0.822264, -0.664620, -0.815888, -0.587386, -0.723632, -0.529211, -0.634333, -0.702340, -0.704443, -0.770695, -0.521149], 
				[-0.811048, -0.885610, -0.065001, 0.114056, -0.041321, -0.235174, 0.216749, 0.308705, -0.097090, -0.941979, -0.384561, 0.263713, 0.287616, -0.443209, -0.695459, 0.274477, 0.469938, -0.277071, -0.585015, -0.353114, 0.263529, 0.191785, -0.615295, -0.114109, 0.316799, 0.318697, -0.494236, -0.997703, -0.327452, 0.349043, 0.087528, -0.150955, -0.150910, 0.050760, -0.101790, -0.851150, -0.339848, 0.260354, 0.271549, -0.057622, -0.517088, 0.192540, 0.392182, -0.044468, -0.568787, -0.452015, 0.356626, 0.074558, -0.540732, 0.028689, 0.416335, 0.251994, -0.713201, -0.783118, 0.048902, 0.399653, 0.029744, -0.146950, -0.031013, 0.061399, 0.137086, -0.793165, -0.555242, -0.001653, 0.414643, -0.070499, -0.348954, 0.162874, 0.178514, -0.165592, -0.400007, -0.379440, 0.381374, 0.056542, -0.377475, 0.148600, 0.350065, 0.287447, -0.403134, -7.282354, 0.055012, 0.322725, -0.076935, -0.255428, -0.088163, 0.339334, -0.033917, -7.479293, -0.499122, 0.300530, 0.367680, 0.050075, -0.473707, 0.025513, 0.207791, -0.048822, -0.522655, -7.778790, 0.315894, 0.259011, -0.304482, -0.067288, 0.273468, 0.203708, -0.436042, -8.094970, -0.124654, 0.527119, 0.049625, -0.120084, -0.104381, 0.103794, 0.213951, -0.437392, -0.504481, 0.024869, 0.281793, -0.099337, -0.392523, 0.417423, 0.331799, -0.363012, -0.534804, -0.567413, 0.301797, 0.266392, -0.477399, 0.006062, 0.406529, 0.527364, -0.357101, -0.852821, -0.320759, 0.252385, 0.088521, -0.085159, 0.149502, 0.465008, -0.155300, -0.923794, -0.442008, 0.100536, 0.506696, -0.039184, -0.431821, -0.049841, 0.284506, -0.048163, -0.315071, -0.506710, 0.379227, 0.146914, -0.636328, -0.181999, 0.457408, 0.511639, -0.624293, -9.188658, -0.159752, 0.397147, 0.127618, -0.029888, -0.216600, 0.245881, 0.014905, -0.635063, -0.694900, -0.009836, 0.608271, -0.044102, -7.666389, 0.061024, 0.366412], 
				[-0.762858, -0.125743, 0.275650, 0.292421, -0.530758, -0.655464, 0.112249, 0.404165, -0.036820, -0.451367, -0.064054, 0.188411, -0.194416, -0.441880, -0.088417, 0.471442, 0.110602, -0.782057, -0.742883, 0.421303, 0.475349, 0.002761, -0.870839, -0.510676, 0.226471, 0.435238, -0.279932, -0.404021, 0.186038, 0.202535, -0.313180, -0.514411, 0.137933, 0.623062, -0.091329, -7.763367, -0.443374, 0.286244, 0.340486, -0.080084, -0.409780, -0.255265, 0.090222, 0.168045, -0.099452, 0.071648, 0.094703, -0.093677, -0.321590, -0.307222, 0.074654, 0.415793, 0.117874, -0.394610, -0.673273, -0.026067, 0.363006, 0.203031, -0.110761, -0.202874, -0.208240, 0.019284, -0.018187, -0.177887, 0.260958, 0.206432, -0.142078, -0.575234, -0.151565, 0.395700, 0.276090, -0.739941, -0.998782, 0.020947, 0.399262, 0.117771, -0.562621, -0.233056, 0.397062, 0.361138, -0.332087, -0.116077, 0.162916, 0.190012, -0.674832, -0.688556, 0.146044, 0.659259, -0.103432, -1.116479, -7.227387, 0.363136, 0.791392, -0.103722, -7.806100, -0.082367, 0.232858, -0.060447, -0.333282, 0.042648, 0.441639, -0.129698, -7.518275, -0.338289, 0.733534, 0.474226, -0.339840, -0.876966, -0.518744, 0.046312, 0.280334, -0.200141, -0.130011, -0.136327, -0.029741, -0.001763, 0.059911, 0.055639, 0.186941, -0.105198, -0.331807, -0.264540, 0.214439, 0.515207, -0.068024, -0.369842, -0.406295, 0.036122, 0.254163, 0.071595, -0.408190, -0.157048, -0.091821, 0.003402, -0.069217, -0.172694, 0.194662, 0.227187, -0.511209, -0.620209, 0.140172, 0.377898, 0.143509, -0.703120, -0.688786, -0.002330, 0.569447, -0.263077, -0.291640, -0.078745, 0.253747, -0.022328, -0.093878, 0.225665, 0.634703, -0.224821, -7.348239, -0.572692, 0.240964, 0.600353, -0.024868, -0.970968, -0.532314, 0.323312, 0.029350, -0.102542, 0.100472, 0.001410, -0.040849, -0.488459, -0.183538, 0.344417, 0.385598], 
				[0.303538, 0.276823, -0.119772, -0.412530, 0.059081, -0.575980, 0.022078, -0.123901, 0.874283, -0.096548, -0.466132, -0.444685, -0.292386, -0.115148, 0.074335, 0.382898, 0.004752, -0.289946, -0.069767, 0.060472, -0.409723, -0.215034, 0.078515, 0.212138, -0.088135, -0.044801, 0.296003, -0.285005, -7.822411, -0.459409, 0.161296, 0.347789, 0.200063, -0.172998, -0.156582, -0.563497, -0.010587, 0.029271, 0.243627, -0.057352, 0.020543, 0.150697, -0.222842, -0.238765, -0.403186, 0.291012, 0.062560, 0.112484, -0.056605, 0.293842, -0.192201, -0.346374, -0.445372, -0.209899, -0.040141, 0.121203, 0.262417, 0.073449, -0.309966, -0.250468, -0.162054, 0.063898, -0.133593, -0.016491, 0.328851, -0.060657, -0.135766, -0.243947, 0.058720, -0.026145, 0.093016, 0.235834, 0.268714, 0.050980, -7.820424, -0.406718, -8.388937, 0.023935, 0.195135, 0.461603, 0.210432, -0.024614, -0.033772, -0.512030, -0.406736, -0.235099, 0.177249, -0.076772, 0.211574, 0.220088, -0.069260, -0.268290, -0.401179, -0.236842, 0.074709, 0.114254, 0.429864, 0.145376, -0.200777, -7.615086, 0.189499, 0.254392, 0.098596, 0.293944, 0.113853, -0.058046, -6.977191, -0.442274, 0.023747, 0.208738, 0.078135, 0.010543, 0.294267, 0.138296, 0.007203, 0.009115, -0.176443, -7.748315, 0.139778, 0.479816, 0.168132, -0.545952, -0.496746, -0.119163, -0.184605, 0.057882, 0.075476, 0.170599, 0.076770, -0.142441, -0.095434, -0.278941, -0.254793, -0.035019, 0.430620, 0.239674, -0.020882, 0.186763, -0.059583, -0.458728, -0.469813, -0.130499, 0.464763, 0.140086, 0.420900, -0.366459, 0.000107, -0.274390, 0.010024, -0.014346, 0.037291, -0.062518, -0.116057, 0.024127, -0.161542, -0.031870, 0.060434, 0.027143, -0.200759, 0.317951, 0.339900, 0.162119, -0.502959, -0.435445, 0.102587, 0.109973, -0.149915, 0.340846, -0.157817, -0.323274, -0.423603, -0.097527, 0.137972], 
				[-0.010558, -0.442709, -0.644817, -0.065025, 0.108549, 0.325497, 0.121600, -0.153885, -0.513042, -0.618118, -0.313319, 0.278862, 0.459045, -0.065489, -0.457159, -0.399674, -0.304086, 0.197734, 0.379138, 0.326779, -0.101968, -0.808211, -0.652957, -0.003870, 0.413225, 0.408274, 0.071547, -0.671973, -0.800202, -0.579828, -0.107707, 0.518333, 0.439816, -0.151148, -0.866092, -0.631544, 0.185705, 0.369596, 0.378896, 0.131274, -0.464810, -0.829357, -0.524073, 0.138839, 0.539655, 0.406045, -0.242938, -0.663894, -0.623850, -0.113027, 0.377401, 0.457695, 0.201352, -0.343084, -0.757326, -0.106376, 0.361397, 0.454392, 0.275971, -0.045694, -0.700387, -0.549168, -0.226613, 0.190219, 0.342529, 0.187027, -0.095999, -0.396269, -0.279083, 0.000426, 0.118569, 0.107368, 0.066838, -0.078265, -0.333114, -0.228924, 0.077780, 0.091122, -0.085177, -0.004539, -0.265755, -0.148212, -0.071205, 0.051250, -0.046169, -0.040588, -0.008693, -0.089730, -0.242962, 0.005540, 0.079232, 0.078692, 0.131844, 0.162858, -0.084360, -0.168703, -0.253584, 0.031795, 0.294335, 0.353835, 0.011111, -0.214271, -0.415620, -0.430824, 0.035838, 0.289929, 0.371781, 0.021634, -0.291146, -0.632471, -0.176233, 0.100071, 0.274956, 0.173630, -0.096233, -0.651361, -0.690998, -0.069866, 0.470187, 0.428056, -0.089062, -0.558621, -0.514967, -0.143806, -0.027361, 0.150954, 0.362946, 0.082243, -7.843635, -7.213623, -0.072170, 0.583627, 0.390228, -0.185488, -7.442935, -0.629520, -0.336917, 0.232166, 0.418088, 0.419993, -0.198442, -7.680027, -7.404260, -0.251730, 0.540754, 0.526072, 0.107652, -0.511475, -0.531515, -0.279904, 0.133843, 0.209878, 0.424227, -0.063365, -0.698036, -0.615695, 0.032640, 0.539395, 0.333479, -0.019041, -0.243905, -0.754748, -0.566777, 0.071990, 0.619517, 0.435952, -0.136788, -0.419226, -0.410068, -0.086955, 0.116879, 0.273430, 0.309461], 
				[0.216807, 0.084048, -0.128761, -0.419453, -0.295524, 0.168723, 0.137033, -0.105494, -0.492859, -0.400493, 0.181962, 0.278510, 0.060495, -0.433185, -0.467506, -0.049725, 0.214995, 0.118435, -0.228945, -0.524610, -0.239207, 0.283549, 0.164556, -0.048203, -0.444721, -0.413978, 0.119415, 0.269597, -0.050728, -0.390628, -0.470244, 0.094230, 0.270856, 0.135516, -0.142693, -0.500913, -0.279557, 0.260507, 0.422444, 0.065881, -0.501505, -0.444267, 0.177154, 0.353246, 0.124712, -0.353780, -0.620922, -0.065177, 0.275524, 0.093999, -0.231509, -0.685914, -0.220463, 0.267352, 0.277173, 0.046727, -0.575840, -0.632333, 0.045579, 0.383175, 0.189965, -0.301492, -0.631234, -0.030455, 0.371508, 0.227305, -0.313318, -0.648927, -0.382147, 0.239151, 0.388465, 0.005032, -0.522907, -0.502610, 0.115391, 0.551187, 0.234596, -0.329615, -0.558455, -0.169360, 0.318432, 0.411752, 0.003955, -0.608662, -0.308437, 0.196428, 0.451371, 0.083433, -0.644458, -0.620949, 0.138553, 0.392132, 0.107364, -0.443126, -0.701279, -0.157758, 0.364092, 0.364392, -0.164094, -0.686338, -0.429528, 0.142230, 0.378645, 0.057121, -0.510513, -0.573603, 0.003446, 0.347103, 0.215100, -0.309667, -0.631207, -0.095850, 0.297292, 0.253161, -0.209462, -0.579889, -0.325856, 0.242455, 0.385351, -0.002462, -0.477715, -0.393244, 0.063361, 0.399433, 0.237769, -0.243932, -0.477153, -0.087903, 0.334826, 0.410932, -0.125657, -0.517976, -0.243532, 0.095184, 0.275592, -0.052577, -0.382516, -0.341550, -0.031450, 0.216235, 0.272207, -0.309990, -0.568139, -0.101153, 0.157350, 0.266589, -0.134805, -0.431660, -0.351511, 0.054897, 0.222359, 0.059485, -0.391456, -0.275668, 0.029086, 0.202996, 0.107801, -0.363831, -0.371657, 0.034204, 0.175832, 0.116964, -0.115684, -0.442461, -0.178000, 0.131424, 0.299215, 0.029543, -0.431096, -0.277946, 0.133256, 0.294584, 0.267191], 
				[-0.635200, -0.068069, 0.116887, 0.169989, 0.093541, 0.328709, 0.235849, 0.307143, 0.292342, 0.111329, 0.095670, 0.115036, 0.233735, 0.065594, -0.023366, 0.072954, 0.362841, 0.110500, 0.290254, 0.304908, -0.095634, -0.329874, -0.309572, 0.167373, 0.137686, 0.339059, 0.179608, 0.139735, 0.146738, 0.027261, 0.196080, -0.098600, -0.102761, -0.070338, 0.127316, 0.095956, 0.047661, 0.163664, 0.004933, 0.173747, 0.313481, 0.037407, -0.293066, -0.320885, 0.070888, 0.139588, 0.058702, 0.184225, 0.156025, -0.059249, 0.116812, 0.381464, 0.261034, -0.322590, -0.215799, -0.048966, 0.117698, -0.240728, -0.098390, 0.038363, -0.168046, -0.100578, -0.157413, -0.197356, -0.486607, -0.400363, -0.250694, -0.075337, -0.233696, -0.177642, -0.328417, -0.272200, -0.190869, -0.240285, -0.381026, -0.445986, -0.411591, -0.402889, -0.752642, -0.461974, -2.618171, -2.400145, -2.355827, -2.211884, -2.521868, -2.694930, -2.810792, -2.195289, -2.583501, -1.902629, -1.916939, -1.827004, -2.151506, -2.573708, -2.356277, -2.267765, -2.005747, -2.291326, -2.122663, -2.003500, -1.913075, -1.951635, -1.871781, -2.029858, -1.807588, -1.684593, -1.514289, -2.103113, -2.228606, -1.892554, -1.937926, -1.742290, -1.417739, -1.726760, -1.555788, -1.291657, -1.773504, -1.693447, -1.509831, -1.542653, -1.462706, -1.507024, -1.487868, -1.194844, -1.511780, -1.309798, -1.741799, -1.017853, -1.545417, -1.416074, -1.732066, -1.536898, -0.739277, -0.931986, -1.053318, -0.740922, -1.323560, -1.233848, -1.550806, -1.643532, -1.462718, -1.336885, -1.541465, -0.694384, -1.301591, -1.472346, -1.363737, -1.046160, -1.106953, -0.504421, -0.321986, -0.490891, -0.607916, -0.261748, -0.597568, -0.947855, -1.245797, -1.439037, -1.072556, -0.740595, -0.758162, -0.782846, -1.106912, -1.537781, -1.292625, -0.909746, -1.170208, -1.470333, -1.296456, -0.538996, -0.559903, -0.788576, -0.597714], 
				[-0.370194, 0.315861, 0.399381, -0.484722, -7.969433, 0.479855, 0.428876, -9.507172, -0.462580, 0.527725, 0.112451, -0.535637, -0.171343, 0.360776, -0.208892, -0.317682, 0.187888, 0.377222, -0.209434, -7.629095, 0.044110, 0.529632, -0.436777, -0.379579, 0.057173, 0.010565, 0.052686, -0.004408, 0.078105, -0.150565, -0.532569, -0.045790, 0.426070, 0.079944, -0.705854, -0.155138, 0.178246, -0.105474, -0.581450, -0.072236, 0.117887, -0.041751, 0.117113, 0.041416, 0.178477, -0.280728, -0.306024, -0.055883, 0.088810, -0.221734, -0.298802, 0.056975, 0.391435, -0.188383, -0.238640, 0.086819, -0.066071, -0.048817, 0.133835, 0.264497, -0.177789, -0.204489, -0.094892, 0.201408, 0.141808, -0.438378, -0.196260, 0.124964, -0.367965, -0.307571, 0.408771, -0.070921, -0.102999, 0.182187, 0.004252, 0.004285, -0.012912, -0.259418, -0.006869, -0.180676, 0.039304, -0.206162, -0.108887, 0.176795, -0.035266, 0.231317, -0.075458, -0.000912, 0.233523, -0.090473, -0.251493, 0.132997, 0.194800, -0.203754, -0.130684, 0.724486, -0.495283, -7.765870, 0.225656, 0.171426, -0.234324, -0.257103, 0.066945, 0.315671, -0.112721, -0.329236, 0.262434, 0.032096, -0.614436, 0.002015, 0.611137, -0.235093, -0.499246, 0.319080, 0.249073, -0.329710, -0.182581, 0.067029, 0.288362, -0.070081, -0.143519, 0.091029, 0.016465, -0.355311, -0.093315, 0.372375, -0.003842, -0.877438, -0.478065, 0.252258, 0.206355, -0.107859, -0.037809, 0.060427, 0.005867, 0.095991, -0.032949, -0.078367, -0.164070, -0.253664, 0.189887, 0.133831, -0.632373, -0.460975, 0.386787, 0.337767, -0.601488, -0.144863, 0.128366, 0.100371, 0.049471, 0.064174, 0.294285, -0.192576, -0.755788, -0.017001, 0.840866, -0.308637, -8.100444, -0.196433, 0.342287, -0.261920, -0.345060, 0.244845, 0.019816, -0.034152, -0.049047, 0.072747, -0.314009, -0.379650, 0.053567, 0.582980, 0.524564], 
				[-0.954298, -0.100494, 0.415060, -0.023211, -0.238451, -0.027795, -0.189656, -0.264832, 0.281014, 0.273082, -0.248417, -0.374788, 0.181190, 0.596086, -0.443343, -0.887792, 0.052679, 0.613456, -0.056104, -0.851531, -0.177849, 0.603436, 0.049980, -0.315916, -0.199181, 0.085880, -0.096867, -0.019142, -0.320460, -0.328027, 0.086089, 0.232273, 0.178480, -0.337791, -0.562077, 0.190943, 0.516002, -0.207530, -0.703459, 0.095101, 0.318394, 0.036041, -0.179547, 0.156477, 0.017964, -0.098648, -0.307722, -0.135640, -0.124383, 0.103910, 0.206279, 0.404036, -0.386041, -7.048106, 0.253480, 0.657550, -0.410629, -8.093569, 0.153616, 0.452184, -0.048118, -7.971395, -0.129365, 0.436983, 0.221853, -0.649015, -0.181497, 0.283101, -0.063734, -0.045468, -0.016020, -0.143636, -0.185214, 0.141505, 0.198183, -0.238073, -0.826214, 0.129252, 0.408268, -0.066538, -7.650571, -0.358279, 0.503997, 0.219937, -0.805017, -0.414077, 0.383742, 0.080730, -0.258011, -0.165676, 0.091905, -0.151864, -0.127472, 0.095158, -0.038467, -0.308332, -0.204690, 0.279078, 0.015741, -0.575394, 0.070395, 0.383834, -0.109987, -0.660447, -0.285319, 0.268983, 0.242071, 0.085409, 0.035901, -0.007386, -0.063263, -0.044310, 0.003252, -0.161174, -0.510475, 0.135551, 0.604411, -0.076879, -0.955824, -0.034981, 0.556294, -0.048342, -7.807988, -0.306176, 0.496987, 0.461298, -0.397543, -0.343706, 0.233096, 0.074456, -0.304798, -0.240188, 0.118975, 0.069610, 0.160531, 0.319637, -0.007718, -0.807249, -0.010047, 0.457789, 0.226937, -0.754349, -0.343906, 0.551406, 0.364637, -0.737264, -0.271195, 0.247853, 0.274795, -0.381599, -0.451187, 0.126787, 0.025619, -0.063034, -0.128251, -0.189242, -0.050079, 0.188161, 0.295549, -0.069145, -0.681595, -0.248207, 0.384085, 0.394622, -0.156109, -0.173327, 0.238491, -0.135982, -0.351206, -0.174957, 0.299219, 0.110860, 0.192580], 
				[-0.249733, 0.184355, -0.054027, -0.418098, -0.022903, -0.012334, -0.060809, -0.174205, 0.300848, 0.169312, -0.154990, -0.272928, -0.024177, 0.304307, -0.058651, -0.022808, -0.204135, -0.062414, 0.376453, -0.052405, -0.673959, -0.081609, 0.438892, 0.455110, -0.651983, -0.088389, 0.378350, 0.089014, -1.066329, 0.002325, 0.465687, -0.092921, -0.740893, -0.383639, 0.430999, 0.171745, -0.272859, -0.352899, 0.084278, 0.108574, 0.034315, 0.006483, -0.127763, -0.012220, -0.110439, -0.564817, -0.115840, 0.505558, 0.260990, -0.704075, -0.396037, 0.313117, 0.112862, -0.228334, 0.111488, 0.297531, 0.083767, -0.446330, 0.029434, 0.114279, 0.244250, 0.180581, -0.272233, -0.434967, -0.204129, 0.273438, -0.093055, -0.558481, -0.064662, 0.388324, -0.131004, -0.404041, 0.014226, 0.170850, -0.253596, -0.330706, 0.427459, 0.223964, -0.289606, -0.067032, 0.209358, 0.181678, -0.282269, -0.184987, 0.101883, -0.088242, -0.302361, -0.130199, 0.349826, -0.052748, -0.359692, -0.084335, 0.427527, 0.277743, -0.351631, -0.168917, 0.271677, 0.426100, -0.340867, -8.017572, 0.060675, 0.465175, -0.140376, -0.416080, -0.093160, 0.264202, -0.097648, -0.554715, 0.039836, 0.444692, 0.195711, -0.325077, -0.001017, 0.218960, 0.081801, -7.887900, -0.291886, 0.229260, 0.374588, -0.303841, -0.041579, -0.168327, -0.017793, 0.048117, 0.198520, 0.005003, 0.093858, 0.032161, -0.236103, -0.259794, 0.199317, 0.252414, -0.404168, -9.042619, -0.013400, 0.525250, 0.063683, -6.106421, 0.028849, 0.400354, 0.068621, -0.300914, 0.063238, 0.192873, -0.072904, -0.246836, -0.181619, 0.389735, 0.113598, -0.251464, -0.533984, -0.229461, -0.026418, 0.338309, -0.115219, 0.097471, 0.221797, -0.218248, -0.250173, 0.471376, 0.371980, -0.437787, -0.411519, 0.435343, 0.421192, -0.417751, -0.219774, 0.591060, -0.223229, -7.529888, -0.297216, 0.253387, 0.193578], 
				[0.805247, 0.136233, -0.710901, -0.507388, -0.141136, 0.099415, 0.098535, 0.466781, -0.109266, -0.707189, -0.778039, 0.344322, 0.497869, -0.037321, -0.624603, -0.372636, -0.176072, 0.057627, 0.127080, 0.338463, -0.148064, -0.896223, -0.482986, 0.368844, 0.313480, -0.167876, -0.518223, -0.255854, -0.032684, -0.076804, 0.173782, 0.365915, -0.418292, -0.982811, -0.417615, 0.510563, 0.388108, -0.166459, -0.562867, -0.373437, -0.046874, 0.085401, 0.294290, 0.200437, -0.394644, -7.618400, -0.106892, 0.360277, 0.314033, -0.287869, -0.642486, -0.282926, 0.097629, 0.199322, 0.312270, 0.061515, -0.625874, -7.552037, 0.087604, 0.456638, 0.417364, -0.465297, -0.648505, -0.133284, 0.115483, 0.133228, 0.288103, 0.074499, -0.707629, -0.579334, 0.277666, 0.506416, 0.014873, -0.769173, -0.492068, 0.019655, 0.210566, 0.149263, 0.154977, -0.148346, -0.730579, -0.425264, 0.472866, 0.430905, -0.163235, -0.775238, -0.304830, 0.242568, 0.134987, 0.161301, 0.272359, -0.243454, -0.790917, -0.145906, 0.281423, 0.519946, -0.154202, -0.839554, -0.278559, 0.317236, 0.300762, 0.157809, 0.042206, -0.299495, -0.630797, -0.136739, 0.477139, 0.292926, -0.732948, -7.702710, 0.070202, 0.408959, 0.129370, 0.058792, 0.011681, -0.340463, -0.607208, 0.296507, 0.517537, 0.091540, -7.688361, -0.701665, 0.211188, 0.407680, 0.218506, 0.094137, 0.005066, -0.431279, -0.520162, 0.226453, 0.554270, 0.065069, -0.845630, -0.681287, 0.205983, 0.373042, 0.154890, -0.023916, -0.298218, -0.336780, -0.155133, 0.287181, 0.478044, -0.264128, -7.509169, -0.347614, 0.240281, 0.236032, 0.321468, -0.051414, -0.149330, -0.633623, -0.216895, 0.267844, 0.385460, -0.405626, -7.389937, -0.155897, 0.422041, 0.246650, 0.000569, -0.253849, -0.275545, -0.295063, -0.070725, 0.440067, 0.350108, -0.704429, -0.790715, 0.023486, 0.357723, 0.160193, -0.042242], 
				[0.011401, -0.091299, 0.294754, 0.510688, -0.606274, -1.049601, -0.346216, 0.298629, 0.193334, 0.115607, 0.473033, -0.675656, -7.538398, -0.356499, 0.581067, 0.415964, -0.038348, -0.085238, -0.232676, -0.475831, -0.246487, 0.364887, 0.225985, -0.348124, -0.359730, -0.126406, 0.157446, 0.141539, 0.261237, 0.080747, -0.637002, -0.358683, 0.345683, 0.241054, 0.077919, -0.020185, -0.131109, -0.257702, -0.443602, 0.089956, 0.302439, 0.064968, -0.225023, -0.186410, -0.308931, -0.468286, -0.048999, 0.202937, 0.366948, 0.013392, -0.162694, -0.228608, -0.016505, 0.289051, 0.291600, -0.480815, -0.635510, -0.144213, 0.193935, 0.288645, 0.213053, 0.173780, -0.811789, -0.868653, -0.089349, 0.261576, 0.028140, 0.021372, 0.256556, -0.392979, -0.693719, -0.169679, 0.138112, 0.029979, -0.160588, 0.120245, -0.006876, -0.259072, 0.146156, 0.310517, -0.223886, -8.262790, -0.479676, 0.424702, 0.322238, 0.132510, 0.148670, 0.016762, -0.646339, -0.629960, 0.216175, 0.241385, 0.059940, 0.081096, 0.016097, -0.391690, -6.921261, 0.197829, 0.086124, 0.154203, -0.052839, -0.027780, -0.096275, -0.009307, 0.261971, 0.036253, -0.533508, -0.485928, 0.001889, 0.132690, 0.163035, 0.233730, 0.156599, -0.554562, -0.513841, -0.067838, 0.092643, 0.148358, 0.288496, -0.151929, -7.648075, -0.473383, 0.204089, 0.339577, 0.123834, -0.090967, 0.021301, -0.220615, -0.236020, 0.394271, 0.336006, -0.461417, -7.133002, -0.078204, 0.080550, 0.137022, 0.341849, 0.465896, -0.303752, -0.817678, -0.348887, 0.192777, 0.138519, 0.146168, 0.404369, 0.015331, -7.096227, -0.440072, 0.172507, 0.027961, -0.144142, -0.123485, 0.304448, 0.228806, 0.072340, 0.350196, -0.148950, -0.636931, -0.533676, 0.081167, 0.151787, 0.299736, 0.367793, -0.120393, -0.333353, -0.609300, -0.188821, 0.124742, 0.139290, 0.467737, 0.087770, -0.559148, -0.337515], 
