{
	"Type":	"MultilayerPerceptron",
	"Layers":	[{
			"Inputs":	96,
			"Outputs":	20,
			"Function":	"RectifiedLinear",
			"Biases":	[1.788814, -0.388717, 2.003589, 0.747594, 1.685183, -0.471580, 2.586006, 2.721441, 1.827598, 2.965932, 1.325147, -0.333208, 1.367428, 1.407423, 1.936849, 1.347259, 0.803493, 1.681376, 0.721784, -5.512336],
			"Weights":	[[-0.664876, 0.120123, 0.094989, -0.156373, -0.551395, -0.260155, -0.207058, -0.040035, 0.210033, -0.480543, -0.286906, -0.128973, -0.083363, -0.249618, 0.200337, -0.263175, -4.560443, -0.195282, -0.126683, 0.030939, 0.010694, -0.185959, -0.253600, -0.111980, -0.644046, 0.041730, 0.238340, -0.301797, -0.434599, -0.013286, -4.993537, 0.192730, 0.239029, -0.321967, -0.289029, -0.153388, -0.069977, -0.053121, 0.326017, -0.086770, -0.031013, -0.270061, -4.460990, 0.133490, 0.301613, -0.275548, -0.297217, -4.202519, -0.126922, 0.125585, 0.122372, -0.238687, -0.548401, -0.295748, 0.008464, 0.070094, -0.063913, -0.471208, -0.429591, -0.224105, -0.009596, -0.021425, 0.241912, -0.242552, 0.022007, -3.104375, 0.112603, -0.086521, 0.074913, -0.229181, -0.166609, -3.902366, -0.188900, -0.051387, 0.240957, -0.276732, -0.358542, -0.351730, -0.106645, -0.018219, 0.077049, -0.379499, -0.113000, -0.233864, -0.069697, -0.077819, 0.270811, -0.239264, 0.202893, -4.001256, 0.174920, 0.026396, 0.105774, -0.383726, -0.228469, -0.071750], 
				[0.206394, 0.133004, -0.234360, 0.246149, 0.178670, 0.428741, 0.941558, -0.583680, -1.299460, 0.169088, -0.036048, 0.794089, 0.898260, 0.417246, -0.828344, -0.255783, -0.886807, 0.052463, 0.376655, -0.561858, -0.410696, 0.050072, -0.419573, 0.154575, -0.125859, 0.200703, -0.393437, 0.294195, 0.205377, 0.398789, 0.726613, -0.668085, -1.316656, -0.002544, 0.261330, 0.731860, 0.889436, 0.571221, -0.576677, -0.272638, -0.111029, 0.098845, 0.423804, -0.590302, -0.981814, 0.090965, -0.211106, 0.248693, 0.190836, -0.091679, -0.355618, 0.371243, 0.259484, 0.347110, 0.580154, -0.720690, -1.742864, -0.118107, -0.026289, 0.372240, 0.817775, 0.498304, -0.551533, -0.142860, -0.222750, 0.058893, 0.130707, -0.365433, -0.317212, 0.128529, -0.399727, 0.093341, 0.114972, 0.039621, -0.485611, 0.244241, 0.542804, 0.217616, 0.513819, -0.112072, -1.360967, 0.292770, 0.219006, 0.995719, 0.847940, 0.422363, -0.515171, -0.123024, -0.259481, 0.018485, 0.644272, -0.468487, -0.767154, 0.462159, -0.092545, 0.211285], 
				[-0.176091, -0.176504, -0.112268, -0.352234, 0.025304, 0.417526, -5.417895, 0.218680, -0.162385, -0.378621, -0.053877, 0.044051, 0.104058, -0.072821, -0.015160, -0.076766, -0.107992, 0.080266, -0.138129, 0.097864, 0.159462, -0.193473, -0.079468, 0.046469, -0.008403, -6.003347, -0.088019, -0.235405, -0.019339, 0.085935, -0.165945, -0.053061, -0.030997, -0.351577, -0.099459, 0.016746, 0.238029, -4.845387, 0.088792, -0.124708, 0.252049, 0.025167, -0.007982, 0.087242, 0.187578, -0.028246, -0.138165, -0.017517, -0.261412, -0.006528, -0.102117, -0.190186, -0.102790, 0.071027, -0.068637, 0.081143, -0.075498, -0.237858, -0.066594, -0.054033, 0.042863, 0.001809, 0.025775, -0.124150, -0.055272, 0.002556, -0.051904, 0.055485, 0.016131, -0.082186, -0.082450, -0.120593, -0.066478, -0.193563, -0.151624, -0.175314, -0.308545, -0.036401, -0.034247, 0.036167, -0.206819, -0.133763, -0.116204, -0.168121, -0.010776, 0.060082, 0.091223, 0.079244, -4.741601, 0.172179, 0.071553, 0.106176, -0.153543, -0.020458, -0.067487, -4.731372], 
				[-0.040770, 0.102261, -0.520336, -0.488126, 0.133489, -0.267648, -2.437553, -1.114745, 0.380936, -0.071701, -0.521887, -2.207067, 0.068165, -0.022703, -1.842146, -1.768223, 0.279631, -0.007482, -2.961180, -1.795029, 0.413793, -0.088448, -0.823514, -0.561279, 0.119736, -0.030762, -0.540410, -0.673442, 0.113096, -0.232761, -2.117027, -1.520508, 0.227789, 0.058934, -0.442266, -1.424357, 0.049497, 0.055369, -1.832402, -1.824754, 0.146230, 0.173142, -2.326179, -0.562371, 0.245147, -0.007447, -0.680143, -1.589655, 0.113890, -0.011949, -0.464272, -0.565702, 0.088525, -0.290266, -2.250343, -0.609521, 0.108523, 0.118473, -0.393800, -0.547760, -0.020643, 0.116446, -2.071800, -0.838145, 0.175906, 0.112686, -2.565917, -0.895679, 0.175429, 0.022384, -0.550294, -2.765147, 0.071857, 0.260308, -0.500459, -0.582688, 0.072354, -0.127516, -2.714892, -0.577055, 0.044953, 0.064922, -0.210693, -1.947891, 0.086374, 0.185945, -2.240470, -0.579217, 0.151734, -0.044971, -0.259784, -3.057705, 0.423378, -0.115223, -0.289014, -2.177369], 
				[-0.086540, 0.057441, -0.003423, 0.104433, -0.311039, -0.279215, 0.122688, -0.114443, 0.015089, 0.123104, -0.142165, -4.478616, 0.154158, -0.023709, -0.036798, 0.096318, 0.005391, -0.153847, 0.091049, -0.121429, -0.081621, 0.142295, -0.133796, -3.962284, 0.036886, -0.067697, -0.020424, 0.122444, -0.397790, -0.296712, 0.105384, -0.150910, 0.077065, 0.120402, -0.099425, -4.145218, 0.141534, -0.029712, 0.012023, 0.128502, 0.067756, -0.010972, 0.033060, 0.156746, -0.065679, 0.162275, -0.070532, -0.182898, -0.012417, -0.014338, 0.017683, 0.146012, -0.365343, -0.111395, 0.073763, 0.104473, -0.187412, 0.122735, -0.156567, -0.174786, -0.019494, -0.043571, 0.011553, 0.329672, -4.856440, 0.030554, 0.111543, 0.015717, -3.733210, 0.211568, -0.236588, -0.133544, 0.004919, -0.088941, -0.003853, 0.130379, -0.390033, -0.173882, 0.178428, -0.056253, -0.220423, 0.131958, -0.078945, -4.295865, 0.322311, -4.968095, 0.085936, 0.156192, -0.009069, -0.037141, 0.177699, -0.235568, 0.124192, 0.186796, -0.091818, -0.099971], 
				[-0.027565, -4.919303, -0.208697, 0.016610, -0.735553, -0.072040, 0.197325, 0.053685, -0.068556, 0.151311, -0.295797, 0.299221, 0.572625, -4.751757, -0.433041, -0.057404, -2.187778, -0.030381, 0.343146, 0.317567, -0.010483, 0.292829, -0.449134, -0.038312, -0.226096, -0.455908, -0.462524, -0.045793, -0.787855, -0.167487, 0.078388, -0.049513, -0.219935, -0.121905, -0.260605, 0.156982, 0.431783, -0.442304, -0.342001, -0.104587, -1.720635, -0.183771, -0.060815, -0.052594, -0.320750, 0.147447, -0.193329, -0.079184, -0.037666, -4.803308, -0.160733, -0.045960, -0.416833, -0.049307, -0.040002, 0.068064, -0.295172, 0.100866, -0.177383, 0.139051, 0.157909, -0.547814, -0.166409, -0.161264, -0.899592, -0.274956, 0.105670, -0.034324, -0.120929, 0.111340, -0.260609, 0.035680, 0.029561, -4.971975, -0.229027, -0.025320, -0.169789, -0.219105, 0.302812, 0.383501, -0.253153, -0.076391, -0.177897, 0.273549, 0.317785, -0.339357, -0.228570, 0.005106, -0.587300, -0.356178, 0.054596, -0.109377, -0.013180, 0.272301, 0.028325, -0.062596], 
				[-0.368785, -0.314087, 0.103656, -0.498373, -0.336548, -1.014860, -0.848620, -0.094934, -0.349174, 0.234348, -0.101345, -1.233082, -3.488760, -0.529419, 0.108714, 0.639413, -0.399268, 0.458049, -0.020265, -1.049177, -1.023159, -0.658001, -0.098998, 0.111149, 0.346874, 0.133738, 0.004781, -0.790353, -0.622550, -1.305536, -1.016181, -0.212898, -1.168633, -0.057738, -0.334553, -1.489678, -3.841377, -0.513320, 0.303185, 0.508099, 0.319732, 1.087828, 0.662947, -0.938467, -0.762452, -0.460881, -0.271932, 0.085715, -0.105010, -0.078314, -0.025208, -0.583635, -0.662947, -1.185268, -0.517981, -0.082724, -0.520710, 0.012325, -0.215942, -0.732690, -3.817940, -0.293839, 0.136563, 0.594965, 0.272882, 0.432937, 0.542804, -1.106460, -0.738780, -0.486542, -0.244298, 0.024247, -0.086568, 0.820904, -0.026481, -0.641416, -0.701627, -1.268281, -0.645256, -0.481637, -0.889536, -0.263981, -0.312298, -0.960500, -3.733645, -0.299329, 0.189744, 0.710337, 0.595138, 1.182882, 0.144500, -0.835515, -1.080184, -0.474098, -0.334932, -0.136748], 
				[-0.493876, 0.235561, 0.230541, 0.190471, -0.133920, -0.968513, -3.074336, 0.118994, -0.513052, -0.006493, 0.080417, 0.056587, -0.072593, 0.102950, 0.274266, -0.027805, -0.196164, -2.811014, -0.077092, 0.080939, -0.156767, 0.156307, 0.183385, 0.103261, -0.538714, -0.041789, 0.213099, 0.187112, -0.488095, -0.893856, -0.342199, 0.033354, -0.391626, 0.047664, 0.172683, 0.073085, -0.028145, 0.006914, 0.347815, 0.283724, -4.039039, -0.241604, -0.119207, -0.637169, -0.010907, 0.124289, 0.177561, 0.120232, -0.435233, 0.086395, 0.250358, 0.207774, -0.296521, -0.389757, -3.807207, -2.635093, -0.116369, -0.100494, 0.075785, 0.296006, -0.107433, 0.098510, 0.289606, 0.118164, -0.128369, -0.407329, -0.175870, -0.401470, 0.164465, 0.173673, 0.227170, 0.162719, -0.428305, -0.202875, 0.260362, 0.090844, -0.587968, -0.673732, -0.345637, -0.352071, -0.268726, 0.056770, 0.133111, 0.098029, -0.164811, -0.013512, 0.210502, 0.120338, -3.635386, -0.133418, -4.550489, -0.029584, -0.440522, -0.189747, 0.118847, 0.212292], 
				[-0.630352, -0.001338, 0.141724, -0.624494, -1.266430, -0.311787, -0.052230, -3.402582, -4.774282, 0.068238, -0.240144, -0.366367, -0.219192, -0.054405, 0.229643, 0.275971, 0.006120, 0.123198, -0.184582, -2.436932, -0.492801, -0.063207, 0.052259, 0.298859, -0.186737, 0.074138, 0.100391, -0.325226, -0.803019, -0.322218, 0.076374, -3.745492, -1.085686, -0.295090, -0.334743, -0.362695, -0.420765, 0.076132, 0.119304, 0.009970, 0.041167, -0.036721, -0.150594, -0.265569, -0.404430, -0.044021, -0.139106, 0.196850, -0.181152, -0.091485, -0.062160, -0.369006, -0.734426, -0.407673, -0.116099, -3.744907, -0.897851, -0.102561, -0.142592, -4.444087, -0.297348, 0.140454, 0.157908, 0.093754, 0.110694, 0.345953, -5.825708, -0.062873, -0.327160, -0.054681, 0.050222, 0.181149, -0.061867, -0.339068, -0.016866, -0.184042, -0.487870, -0.109045, -0.055636, -0.806538, -0.939268, -0.266021, -0.245852, -0.236914, -0.203174, 0.183971, 0.230318, 0.046626, 0.091860, 0.134262, -0.150994, -0.577142, -0.445459, 0.003077, -0.022512, 0.033876], 
				[-0.115890, 0.038308, -0.089597, -0.148136, -0.095650, -0.005358, -0.084226, -0.106684, -3.409906, -0.290790, 0.032915, 0.027653, -0.072813, 0.006289, 0.017489, 0.028135, -0.182761, 0.066741, -0.055477, -0.119189, -0.262248, -0.126278, 0.119880, 0.084923, -0.026806, -0.046517, -0.132869, -0.136736, -0.048387, 0.039619, -0.229770, -0.194066, -4.447211, -0.269221, 0.056938, 0.054753, -0.031977, -0.003148, 0.037598, 0.026257, -0.031039, 0.063736, -0.014414, -0.071642, -0.276771, -0.085629, 0.109113, 0.071968, 0.055278, -5.085549, -0.037372, -0.091868, -0.048742, 0.025523, -0.088523, -0.120888, -4.661624, -0.280242, 0.058721, 0.157369, -0.110216, -0.024519, 0.019432, 0.043342, -0.077830, 0.037309, -0.122864, -0.102128, -0.349629, -0.197080, 0.169108, 0.141235, -0.066128, -0.069947, -0.092569, -0.163924, -0.012881, 0.296758, -5.820086, 0.113097, -3.771795, -0.224088, 0.104060, 0.081186, -0.128988, 0.035354, 0.060716, 0.073430, -0.015834, 0.109270, -0.183863, 0.013220, -0.073167, -0.031645, 0.138074, 0.142173], 
				[-0.349192, -0.005783, -0.331311, 0.030179, 0.321544, 0.322354, 0.009101, -0.612230, -0.074621, -0.202596, 0.280576, 0.202869, -0.303946, -3.440728, -0.262513, -0.491823, 0.245613, -0.100910, -0.054164, -2.417842, -0.562414, -0.226236, 0.159298, 0.082749, -0.110823, -5.348044, -0.217176, -0.077486, 0.360528, 0.404638, -0.125272, -4.324393, -0.375411, -0.263521, 0.682450, 0.559883, 0.086254, -3.812526, -0.434226, -0.526065, 0.087501, -0.422432, -0.293097, -3.151708, -2.882222, -0.897134, 0.423006, 0.016296, -0.217953, -4.936122, -0.173420, -0.094597, 0.379861, 0.467817, -0.407012, -0.580834, -0.077071, 0.103686, 0.553988, 0.332592, -0.289105, -3.011636, -0.106218, -0.524285, -0.027851, 0.030295, -0.244176, -0.717019, -0.667681, -0.126501, 0.454883, 0.032809, -0.125524, -0.110612, -0.186098, -0.138519, 0.231790, 0.225233, -0.238271, -3.315105, 0.058196, -0.244318, 0.325998, 0.452281, 0.706693, -3.483798, -0.275921, -3.554399, 0.095231, -0.635826, -0.072329, -2.791204, -2.983859, -3.804310, 0.232523, 0.209362], 
				[-0.136532, 0.021670, -0.017336, -0.143535, 0.216981, -0.294502, 0.165827, 0.237008, 0.246625, -0.232264, -0.048716, -0.470046, 0.064634, -0.086353, -0.076553, -0.456269, 0.333932, -0.326580, 0.126379, 0.252029, -0.021738, -0.204996, -0.088485, -2.786133, 0.242152, -0.005135, -0.174437, -0.319141, 0.201845, -0.415257, 0.029147, 0.381696, -0.175778, -0.251663, -0.304192, -3.077029, 0.074013, -0.222359, -0.325482, -0.392343, -0.061952, -1.739709, 0.334803, -3.119483, -0.017892, -0.148852, -0.078819, -3.188703, 0.355283, -0.152268, -0.232016, -0.400993, 0.193814, -0.385741, 0.144378, -3.418400, 0.264242, 0.052592, -0.348111, -3.469644, 0.169323, -2.320553, -0.748070, -2.317171, -0.148172, -3.440406, 0.055262, -0.749081, 0.187285, -0.554449, -0.186064, -3.253742, 0.381524, -4.231168, -0.095604, -0.324722, 0.073645, -0.394723, -0.047088, -0.482581, 0.207858, -0.379958, -0.183425, -2.733918, -0.050360, -3.260846, -0.312803, -2.311168, -0.009615, -0.369500, 0.013046, 0.028267, -0.147956, -0.191712, -0.003633, -2.591195], 
				[-0.187974, 0.064253, -0.318402, -1.276373, -0.448165, 0.537290, 0.017446, -0.457665, -2.002301, -1.312581, -0.218471, 0.320481, -0.090090, 0.032886, -1.391079, -2.182974, -1.158218, 0.048234, -0.147277, -0.830153, -1.357055, -1.231513, -0.447204, 0.460275, -0.068741, -0.145512, -0.179571, -0.915549, -0.267057, 0.606412, -0.186990, -0.201116, -2.285365, -1.111589, -0.120356, 0.199460, 0.176113, 0.283345, -1.186829, -2.206492, -1.822501, -0.083052, -0.524660, -0.860671, -2.173487, -0.254045, -0.589029, 0.244752, -0.026307, -0.137234, -0.098173, -1.093227, -0.375772, 0.710989, 0.006085, -0.813058, -2.614505, -1.335030, -0.333816, 0.251932, 0.131327, -4.547048, -1.369415, -1.857238, -1.754465, -0.312469, -0.356613, -0.848245, -1.744141, -1.395060, -0.621817, 0.232745, -0.249414, -0.666253, -0.111132, -1.228932, -0.557577, 0.500069, 0.009934, -0.622035, -2.265601, -1.768680, -0.391573, 0.344501, 0.225146, 0.184114, -2.115191, -2.331787, -2.567433, -0.056432, -0.109081, -2.820502, -0.839777, -0.414131, -0.558737, 0.328514], 
				[-0.302120, 0.601372, -0.010615, -1.325491, -0.644565, -0.195305, 0.044375, 0.271314, -2.005838, -1.029426, -0.670419, -0.336659, 0.117683, 0.831955, -0.361121, -2.094573, -1.744810, -0.562647, 0.004020, -0.196919, -1.086534, -1.637692, -0.786712, -2.642806, -0.292836, 0.594848, 0.137390, -1.119280, -0.758986, -0.600933, 0.272899, 0.261507, -1.047220, -1.105991, -0.539752, -0.283871, 0.202314, 0.954118, -0.042644, -1.781257, -1.370061, -0.538633, -0.461712, 0.283895, -2.246281, -2.060249, -0.454426, -0.095619, -0.488941, 0.419326, 0.265116, -1.029133, -0.537538, -0.218318, -0.129379, 0.251297, -1.887974, -1.353144, -0.625476, -0.254393, 0.206811, 1.194943, -0.251357, -2.021729, -1.232646, -0.424477, -0.292161, 0.281221, -0.875643, -0.979947, -0.812812, -3.390893, -0.212601, 0.369848, -0.021080, -1.360530, -0.881893, -0.381978, 0.123932, 0.286361, -1.411379, -1.340384, -0.875285, -0.096425, 0.199205, 1.035860, -0.416882, -1.705997, -2.276814, -0.425797, 0.093875, -0.009544, -2.270855, -0.665071, -0.257775, -2.720141], 
				[0.106064, -4.802369, 0.012424, -0.332594, -0.351073, -1.150717, 0.056360, -3.900896, -0.095376, -2.375909, -0.503648, -0.172112, -0.096912, -0.147631, 0.234452, -0.181378, 0.183642, -3.320922, 0.041950, -0.292952, -0.118511, -0.384185, -0.041833, 0.282737, 0.020022, -0.120855, -0.103267, -0.538609, -0.865234, -0.541725, -0.113207, -0.005832, -0.022236, -0.674014, -0.437935, -0.104526, -0.060036, 0.072794, 0.212378, -0.058244, 0.059045, -3.645256, 0.002802, -0.071691, -2.847857, -0.047892, -0.296090, -0.151858, -0.072459, 0.169345, -0.070171, -0.456358, -0.860423, -2.324470, -0.066571, -0.001138, -0.275003, -1.848350, -0.364496, -3.522170, 0.000378, 0.199327, 0.152249, -0.083707, 0.011356, -3.342082, 0.103753, -0.102975, -0.417693, -0.278555, 0.002486, -0.159409, -0.087361, 0.330900, -0.075568, -0.278938, -1.323810, -2.470150, -0.061738, -0.027222, -4.373839, -0.337472, -0.636884, -3.406445, 0.083320, 0.118702, 0.071685, 0.029467, -0.076414, -4.622039, 0.237957, -3.699827, -3.145043, 0.023042, -0.385530, -0.158428], 
				[0.261671, -5.890656, -0.329602, -0.529495, -0.425753, 0.104377, 0.157206, -0.659952, -0.240412, -0.377955, -0.500045, -0.022430, 0.131072, -0.039793, -1.215121, -0.570340, -0.463312, 0.041545, 0.345416, 0.004872, -2.894669, -0.441199, -0.955550, -4.481384, -0.151342, -0.141190, -0.614840, -0.809926, -0.173514, 0.109519, 0.206562, -0.778372, -0.368110, -0.284153, -0.467251, 0.004003, -0.100672, -0.003085, -2.139921, -0.485664, -0.313280, -0.102128, 0.124009, 0.270124, -0.309185, -0.505983, -0.863062, -0.210116, -0.146951, 0.058544, -0.548470, -0.535882, -0.201742, 0.233085, 0.012052, -0.040596, -0.166448, -0.354471, -0.406824, 0.179340, -0.094662, 0.086017, -0.653828, -0.405606, 0.207238, 0.189500, -0.006464, 0.288236, -0.594126, -0.306461, -0.554014, 0.024933, -0.081714, -0.123741, -0.247061, -0.568506, 0.165049, 0.238220, -0.287021, -0.253729, 0.180927, -0.185303, -0.043568, 0.422390, -0.073126, -0.023302, -0.187035, -0.217316, 0.305097, 0.336059, -5.435448, 0.495601, 0.392354, -0.169836, -0.228866, 0.137485], 
				[0.042346, -0.057320, -0.551611, 0.006334, 0.003564, -0.689131, -1.218459, 0.233133, 0.061794, -0.329036, -0.566544, -0.018704, -0.046887, -3.490527, -0.790890, 0.236043, 0.270200, -0.501960, -2.945841, 0.202740, -0.059501, -0.937126, -0.743590, 0.108872, 0.132023, -0.247802, -1.022745, 0.085732, -0.000379, -1.137092, -2.031184, 0.270563, 0.060076, -0.423989, -0.738163, 0.011632, -0.066830, -3.587600, -0.613041, 0.346728, 0.158315, -3.412229, -2.764025, 0.050711, 0.061344, -1.026073, -0.720729, 0.082781, 0.178690, -0.236499, -0.834153, 0.074571, -0.037324, -1.035847, -2.449534, 0.128939, 0.102720, -0.227865, -0.685804, -0.079617, 0.027032, -3.315002, -1.000610, 0.305040, 0.182026, -0.366517, -3.262492, 0.024459, 0.066920, -1.115916, -0.756335, 0.009519, 0.075959, 0.076405, -0.876846, -0.002909, -0.046574, -0.932593, -2.881445, 0.100388, 0.224907, -0.334372, -0.553349, 0.011415, 0.015776, -2.702129, -0.689407, 0.208127, 0.246023, -0.753442, -3.166332, 0.188629, -0.101882, -0.638911, -0.506671, 0.069589], 
				[-0.567848, -0.583895, -0.250839, 0.025573, -0.285023, -0.231631, -0.465664, 0.302544, -0.144079, 0.218894, -0.084043, 0.024435, -0.440281, 0.090086, -0.090748, 0.480239, 0.325652, -0.106339, -0.486656, -0.405229, 0.065010, 0.215874, -0.162489, -0.117972, 0.167519, -0.425169, -0.440833, 0.084003, -0.474835, -0.289570, -0.387015, -0.089102, -0.102243, -0.218809, -0.461942, -0.222327, -0.277183, 0.088053, -0.034598, 0.195264, 0.518582, 0.053644, -4.963757, -0.239003, 0.260365, -0.176205, -0.242525, -0.294226, -0.281375, -0.586928, -0.480433, -0.055057, -0.191665, -0.088947, -3.875271, 0.564734, 0.105129, -0.475971, -0.332849, -0.013274, 0.032901, -0.228906, -0.221825, 0.251514, 0.240679, -0.289098, -0.365997, -0.070091, 0.341118, 0.002040, -0.174630, 0.002463, -0.065132, -5.934660, -0.294847, 0.047320, -0.004820, -0.117241, -0.029007, 0.122907, -0.156065, -0.277013, -0.351629, 0.081615, -0.311578, 0.173078, -0.145578, 0.298338, 0.413663, 0.034959, -0.461955, -0.186908, 0.324436, -0.067208, -0.168350, -0.025711], 
				[-0.120272, -0.128741, -0.473360, -0.933486, -0.669197, -0.745399, -0.330009, -0.429137, -0.280790, -0.513183, -0.411866, 0.459240, 0.452382, 0.712509, -0.042018, -2.348325, -3.131730, -2.114481, -5.568106, 0.072528, 0.130587, -0.321117, -0.219737, -0.172427, -0.383216, -0.178683, -0.344579, -1.006127, -0.686762, -1.756947, -0.633397, -0.577793, -0.606853, -0.390780, -0.399902, 0.229523, 0.406284, 0.395514, -0.142238, -2.308346, -3.308377, -3.718976, -0.565042, 0.147198, 0.173257, 0.357852, 0.193300, 0.016651, -0.325429, -0.359107, -0.702349, -0.832107, -0.639311, -0.552997, -0.402588, -0.424560, -0.289795, 0.050111, -0.036589, 0.302407, 0.386440, 0.109009, -0.375718, -2.136506, -3.598724, -0.795897, -0.673225, 0.166576, 0.209115, -0.195561, -0.072860, -0.122767, -0.240089, -0.129789, -0.435589, -0.660032, -0.435004, -0.405529, -0.362347, 0.075022, -0.375816, -0.327305, -0.295877, 0.359819, 0.490021, 0.364603, -0.019741, -1.005180, -0.730872, -0.628529, -0.561707, -0.208290, -0.120097, 0.206729, 0.021988, -0.102225], 
				[0.175618, -0.291146, -0.207231, -0.041571, 0.063060, -0.182262, -0.305283, 0.166962, 0.349743, 0.183363, -0.321738, -1.523322, 5.142523, -0.031252, -0.517467, -0.208836, -0.210597, 0.033290, -0.027109, 0.230549, 0.194513, 0.153084, -0.222990, -0.346390, 0.221768, 0.033747, -0.238657, -0.186576, -0.377687, -0.221837, -0.391358, 0.187493, 0.294507, 0.230283, -0.211965, 0.010251, 0.028705, -0.030692, -0.249579, -0.281213, -0.156357, 0.001181, -0.418502, 0.165424, 0.214157, 0.270003, 0.019159, -0.198264, -0.301695, -0.238578, -0.193382, -0.042689, 0.066206, -0.009836, -0.125851, 0.178019, 0.061625, -0.094455, -0.124569, -0.213318, 0.175089, 0.142235, -0.168284, -0.155569, -0.135131, 0.049196, -0.199298, 0.271680, 0.059411, 0.344409, -0.077074, -0.159363, 0.301860, -0.053972, -0.120641, -0.094423, -0.288974, 0.132443, -0.232541, 0.204265, 0.250113, 0.439253, -0.229662, -0.160986, 0.169584, 0.085844, -0.261914, 0.002088, -0.230967, -0.022133, -0.351135, 0.191827, 0.099325, 0.438210, 0.090938, -0.122991]]
		}, {
			"Inputs":	20,
			"Outputs":	1,
			"Function":	"Sigmoid",
			"Biases":	[0.574770],
			"Weights":	[[-0.541408, -0.883327, -0.158583, -0.048216, -0.055655, 1.249142, 0.322514, -0.310851, 1.293278, -0.062742, -0.690523, -0.150263, -1.213830, -0.573659, -0.173024, -0.408842, -0.062322, 0.523788, 1.613677, 0.877309]]
		}]
}